1306 100
么 0.725840 -1.682803 -0.499442 -1.889422 0.408613 -1.759194 -1.809289 -0.060300 0.725493 0.776077 0.791368 -1.579281 0.258521 -0.297248 0.356117 1.088961 0.821777 -0.801854 0.594073 0.522375 1.413619 0.305454 0.871799 0.765648 0.950692 -1.166175 0.312330 -0.300896 0.050451 -0.612024 -1.161573 -1.339577 -0.089550 -0.528850 1.616556 0.393506 0.621777 -1.266746 -1.417327 1.678120 0.666888 1.064026 -1.097739 -1.679588 0.387484 -1.897745 -1.966561 0.852838 -0.264299 -0.573738 0.606355 0.315356 -0.574460 -0.050528 0.829108 -1.207371 -0.401539 -1.169546 -0.642971 -0.301012 -0.409710 0.554005 1.501190 0.225609 1.619510 -1.663646 -0.880852 0.998554 -1.371442 0.152343 -1.050445 -0.515851 -1.005609 -0.233608 0.825897 0.490290 -1.043430 0.542639 -1.448846 0.861428 0.888659 -0.489984 0.296177 0.445302 -0.732165 0.579995 1.111765 -0.696288 0.488490 -1.276712 0.500995 0.807751 -0.615190 0.045631 0.251879 -0.816543 -0.124507 -0.024055 -1.037604 -0.631980
款 -1.052597 -0.615147 -1.031287 0.003496 -0.896352 -0.512587 -0.128361 1.300433 0.124960 -0.607174 0.039916 -0.172624 0.070248 1.012619 0.673773 0.098597 0.407108 -0.546609 -0.842536 1.857293 1.432832 1.020268 -0.833940 -1.144268 1.618728 -0.550978 1.119875 0.652935 -0.215255 0.113480 -0.445822 -0.463368 -0.115583 1.517184 1.874738 0.821387 -0.699169 0.139967 0.066558 -1.377828 -0.885844 1.189620 -0.096706 -0.056657 1.200854 -0.331629 0.478140 1.497069 0.883134 0.157360 -0.223294 0.291349 -1.489654 -0.864996 -0.604143 0.978704 -0.658912 -0.628683 -0.314704 -0.223935 -0.404677 0.401899 0.647039 -0.110658 -0.603996 -0.586174 -0.353449 2.124187 1.287531 -0.007439 -0.004074 -0.650497 -1.310545 -0.987459 -0.431992 0.925079 -0.596990 0.244269 -1.154894 0.616422 -0.714674 -0.784129 0.427848 0.247052 -0.869809 0.107755 -0.864725 0.078758 0.105843 0.980122 1.050815 0.261175 2.003010 -1.458086 -0.790740 -0.420569 0.030293 -1.508508 0.565562 0.190740
我 0.551952 0.138040 -0.030375 0.535038 0.381805 -0.070809 -0.160955 0.411758 -1.143361 0.491689 -0.123727 0.355549 0.565629 0.963987 1.160338 -0.622375 0.005622 0.136201 -0.267453 0.774770 0.441692 0.162071 0.416026 0.173737 0.026735 0.678403 0.230815 -0.149916 -0.810472 0.751198 -0.304736 -1.277827 1.605803 -0.063676 0.632043 0.562920 -0.784697 -1.729751 -0.498977 0.552976 -1.452727 0.115464 -0.712247 -0.295748 -0.452402 0.238057 -0.015321 -1.039384 -0.423758 -1.485009 -0.695515 -0.917356 0.024839 -0.753826 1.148818 1.141451 0.461824 -0.005318 0.067039 0.546555 -0.150049 -0.598436 0.233226 -1.030466 0.884288 -0.360384 1.381937 0.571080 0.523020 0.219189 -0.427841 -0.342269 -0.506264 0.228136 -0.026385 -0.862270 -0.396863 0.606764 0.400163 -0.322546 -1.038891 0.163081 -0.602575 -0.772339 0.176527 0.171720 0.860260 0.005197 0.928257 0.000153 0.347672 0.361207 0.614904 -0.816097 -0.049188 -1.685629 0.292863 -0.079834 -0.048809 -1.138633
还 -1.239749 -0.017767 -2.674759 0.651251 0.120397 0.416270 0.219117 0.473637 -0.398727 0.182549 -0.234436 -1.360478 -0.629913 0.624878 2.068489 0.110007 1.959421 -1.875892 -0.300465 0.874986 0.156912 -0.817773 -0.517771 1.109306 0.650859 -1.301656 -0.963494 0.335399 -0.040624 -0.438395 -0.455749 -1.804155 -0.570925 -0.282941 0.124289 1.172854 0.089671 0.033395 -0.004837 -2.414434 0.870122 0.595012 -0.171758 0.966160 -0.331217 -0.118192 0.260218 -0.179092 -0.647432 0.298678 -1.133672 -0.265718 -2.256129 -1.031065 0.589047 0.222426 -1.352144 -0.459099 -0.457954 0.231146 -0.793667 -0.811062 -2.124588 0.355365 -0.730671 -0.427441 0.518776 0.418300 -0.151603 0.379939 0.511312 -1.086726 0.287208 -1.154787 -0.132793 -0.370464 -0.099541 -0.835272 0.907986 0.619837 -1.865604 1.196462 -0.918692 1.143480 -0.288121 0.096759 -1.462513 -0.008265 0.421528 -0.723775 1.706899 -0.028799 0.242500 -0.484533 -0.344150 -0.181363 -0.537399 -0.839038 0.091991 -0.586726
， -0.503260 0.103854 -0.170912 0.820818 -0.563766 0.682850 -0.930310 0.315553 -0.387977 0.863516 0.422430 0.158969 -0.424800 -0.255495 1.465767 1.239584 -0.580889 -1.182910 -0.498877 1.577723 0.400661 -0.185297 -0.068111 -0.578627 1.301649 0.037184 -1.158336 -0.064209 -0.242139 0.715237 -0.753482 -0.438553 1.009102 -0.349742 0.182181 0.450460 0.200842 -0.009173 -0.767144 -1.526665 1.130007 0.911365 -0.059001 0.073324 -0.160469 -1.507390 0.287001 -0.071571 -0.805124 -0.365230 0.454953 0.067674 -1.095037 -0.881475 -0.345725 0.677172 -0.883206 0.313708 0.448722 0.109184 -0.513437 0.285053 -0.376621 -0.152496 0.308396 -0.124600 1.447129 0.619329 -0.044389 1.136278 -0.667567 0.112784 -0.005262 0.149556 -1.595358 -0.730200 0.323738 -0.113955 0.475018 0.201125 0.060327 -0.567629 -0.058720 0.429759 0.065215 0.554175 -0.280191 0.766076 -0.167801 0.765060 -0.194511 0.217901 0.326203 -0.375423 0.363258 -0.613364 -1.087522 -0.531612 -0.170436 -0.198754
不 0.569608 0.511235 -0.432753 -0.271314 0.489386 -1.042831 -0.164978 0.539042 1.159036 0.942541 -0.215299 0.435013 -0.075233 0.263680 -1.568027 0.395624 -0.075077 -0.507991 0.241410 1.402482 -0.018750 -1.735026 -0.264030 -0.702418 0.220482 1.390381 0.439035 1.044057 -0.793186 -0.502761 0.148602 -1.158272 0.195576 0.442212 -0.207028 0.664686 -0.196212 0.016258 -0.493419 1.643080 -0.506209 0.410826 0.214936 -0.617626 -0.968587 -1.220963 -0.104269 -1.256918 -0.492881 -0.782072 -1.365184 0.778020 -1.393426 -1.529615 -0.209109 1.484229 -0.414909 0.527696 -0.196050 -0.073014 -1.118535 -0.294161 0.121309 -0.888731 1.415137 1.548528 -0.469922 1.999696 0.792764 -0.049419 -0.511478 -0.007010 0.600445 -0.215919 0.673674 -1.044385 -0.146443 -1.012850 -0.073099 0.707620 -0.439537 -0.143260 -0.343998 0.564427 -0.832041 0.031252 0.485234 1.155866 -0.956491 -1.942574 0.411023 0.407533 -0.916661 -0.137579 0.032651 1.529194 -0.637729 -0.888997 -0.457678 0.001831
借 0.214561 -0.250895 -0.825599 1.136384 1.197911 1.134417 1.231985 -1.162599 0.567518 0.765221 1.673601 -0.423503 -0.982178 1.162001 1.245627 -0.563456 1.446234 -0.788012 1.019988 0.675341 -1.008769 0.295541 0.575263 1.103213 -0.294012 -0.615652 -0.783428 -0.975843 -1.574885 1.066692 -0.232488 -0.642106 0.983095 0.736792 -0.142053 1.168875 0.739205 -0.490522 0.545699 -1.851361 0.635937 1.208604 0.482039 0.405213 0.005004 -0.700060 -0.455874 -0.308640 -2.041556 0.502764 -0.496440 -0.784404 -0.573339 -0.824084 1.140443 0.031419 -2.104342 -1.827343 -0.731722 0.807648 0.341765 -0.147863 -0.975742 0.224288 0.228054 0.082927 0.210899 -1.612499 -0.736151 1.220905 1.072217 0.131553 1.293206 -0.387046 0.556486 -0.418435 0.940798 -0.995522 0.515585 0.003202 -0.534719 -0.417387 -0.116886 0.847607 0.231562 0.620526 -1.098463 0.632980 -0.238224 -1.853402 0.815981 0.562725 0.327830 -0.566123 -0.054366 -0.624426 0.954093 -1.646987 -0.885145 -0.798396
什 -0.796317 -0.165919 -1.047658 0.308984 0.397111 -0.299171 1.037493 0.056924 1.150937 -1.313020 0.006279 0.950589 -0.463290 0.003591 -1.474451 -1.146056 0.585251 1.028350 -1.005440 0.153582 -0.201251 -0.125623 -0.889614 1.301646 -0.509373 0.776293 -1.872801 -0.192771 -2.074552 1.620142 -0.331978 0.033839 1.700536 0.010469 1.272487 -0.997239 -1.183902 -2.799443 0.418390 -0.732874 -2.193173 1.317162 0.655140 1.082340 1.916880 0.732595 0.275524 0.525241 0.460898 0.623856 0.829760 -0.881743 -0.494184 -1.184377 1.076438 0.269269 -1.012913 0.108813 0.524138 1.055058 2.006789 0.229903 -0.566686 -1.338477 0.550206 -1.111715 0.181589 0.195551 1.826795 -1.108894 1.807244 1.726643 0.768705 -0.901202 -0.635316 -0.634164 0.015109 0.004649 2.697200 -0.187782 0.234534 1.237336 -0.563477 -0.681940 -1.869678 1.130413 1.259490 0.621722 0.843773 0.210539 2.340641 1.589344 -0.224099 -0.421378 -0.593233 3.413474 -0.868070 0.591556 2.064697 -0.022268
？ 0.029340 0.088136 -0.189678 -0.478758 -0.402897 0.446735 -0.260216 -0.079360 0.775926 0.358305 -1.060322 -0.520346 -1.647928 -0.803368 -0.097177 0.405674 0.678341 -0.682464 0.169801 -0.109218 1.589615 0.319934 0.343235 0.198063 0.324342 -0.365118 -0.138010 0.847939 -0.032437 -0.014587 0.321667 -0.189240 0.040240 0.099201 -0.434905 -0.193364 0.230228 0.830858 0.005696 0.395532 0.479659 1.346159 0.003927 -0.514835 0.876187 -0.838178 0.057151 0.107082 0.774824 1.214395 -1.177144 0.190371 -0.476864 0.208563 -0.178846 -0.145543 0.882589 -0.281754 0.124514 -0.581108 -0.326766 0.215334 0.320126 0.808870 0.609276 0.360088 0.053006 0.591566 -0.184329 0.060874 -0.043546 0.364908 1.065552 -1.513415 -1.251403 -0.528038 0.691735 0.203221 -0.322103 0.426870 0.894198 0.448247 0.138202 -0.315594 0.559726 -0.799586 0.384690 1.764784 -0.038340 0.062694 0.984855 0.221225 0.304396 0.299934 0.062191 0.822862 0.869527 0.159612 -0.028457 -0.004920
微 -0.272881 -1.644708 0.994042 0.561976 2.427641 -0.115972 0.903460 1.909280 0.227715 0.800058 -0.732162 -0.784537 0.810350 1.405914 0.068588 -1.379730 -0.706546 1.149100 3.067759 -0.159672 0.101012 0.985973 0.509551 1.074253 0.327075 1.113321 0.232722 0.335745 -0.859684 0.201306 -0.163461 1.169657 1.691047 0.687250 1.072684 1.422457 -2.306256 0.207460 -1.147655 1.593904 -0.550985 1.454462 -0.911999 -0.588177 -0.463731 -0.306919 -0.503167 -0.930913 0.217338 -0.229374 -0.485848 -1.602464 1.439427 0.501029 -0.428221 0.537321 -0.027494 0.163166 2.921998 0.322208 -0.263910 -0.912778 0.191985 -0.762186 -0.393964 -0.310852 0.170250 -0.547636 0.292702 -0.842507 0.643577 -1.731135 -1.193886 -0.987020 -1.244890 -0.558845 -0.555318 0.801237 -0.503986 2.044960 1.276313 0.985585 1.791499 1.514709 1.385600 -0.312615 1.788644 -0.295803 0.973530 -1.509964 1.235793 -0.318352 -0.176507 0.125164 -1.068969 0.761098 -0.768134 0.319485 2.530855 -0.207302
的 -0.274506 -0.973948 -0.651980 -0.373974 0.053379 0.368894 -0.257977 1.342930 0.894089 -0.107737 -0.203435 -0.023929 0.024924 -0.631151 1.008128 0.033537 -0.100965 -0.679093 0.240125 1.245914 -0.174726 -1.864343 -0.489354 0.013616 0.668684 -0.406054 -0.186738 0.996241 0.586588 -0.788230 -0.917628 0.250079 -0.351960 -0.074421 -0.569503 0.087675 -0.509268 -0.851579 -0.090378 1.071612 0.976881 -0.005637 0.145517 0.021965 0.844728 -0.639679 0.278684 -0.316052 -0.386872 -1.009100 0.038427 0.157250 -0.677435 -0.313007 -0.033675 -0.494193 0.253308 0.352511 0.341228 -0.429496 1.028428 0.348312 -0.727499 0.610606 0.330845 0.329306 0.336708 0.571537 -0.168284 -0.467707 1.294624 0.033649 -0.825979 0.256880 0.065094 -0.280358 0.404557 -0.072025 -0.344544 0.103379 0.274768 -0.085560 0.630665 -0.795061 0.502064 0.367539 0.456605 -0.020673 0.725475 -0.151873 0.517986 0.132883 0.562933 0.091591 -0.753493 0.990534 -0.590923 -0.085122 0.865931 0.806732
贷 1.665601 -0.803115 1.793922 -0.151924 2.157869 0.556620 1.937001 -0.681907 0.073057 0.340799 1.287550 -0.853293 -1.349811 0.811064 0.286949 -1.359143 0.874094 -0.515511 0.862528 0.415266 0.946934 -0.151468 0.719959 1.539667 -0.752127 0.540767 -0.259104 -1.728434 0.886390 1.594674 -0.499849 -0.675697 0.425630 -0.375331 -0.281323 0.813038 -0.713884 -0.882501 0.368584 -0.036308 0.217562 0.495659 -0.684326 -0.899248 0.157757 -0.911621 -0.745180 0.762984 -1.476233 -1.168300 0.305495 -0.656934 -0.629457 -0.573859 0.165340 0.094216 0.582730 -0.180376 0.688498 1.162515 0.114896 -0.669612 -0.742799 -0.832098 2.628634 0.848621 -0.407310 -0.429680 -0.759532 -0.594423 0.104214 -2.180521 -0.055223 0.002892 1.258474 -0.193729 0.870737 -0.575435 1.389623 -0.198499 -0.200184 0.721302 -0.427781 -0.627583 0.398229 0.780442 0.579443 1.396295 0.495472 -0.357756 -0.359920 -0.146492 -0.379081 0.900958 -0.091352 0.241862 0.452347 -0.522366 1.356370 -0.429117
了 -0.799686 -0.658444 -0.830427 0.464817 -0.332098 -0.079762 -1.747849 0.437006 -0.804365 0.262117 0.269103 1.786000 -0.354518 0.139310 0.710382 -0.750934 0.220165 -0.045346 -0.828365 1.205329 1.443775 -0.242450 0.468275 -0.359660 -0.216661 0.153408 0.530897 0.951702 1.756259 0.629764 0.858417 -1.393568 -0.156363 0.740597 1.055366 1.171679 0.599178 -0.734943 0.005604 0.121604 0.170751 1.604343 0.618002 0.366433 1.009640 -0.054526 -1.147142 -0.755803 -0.469530 -0.231602 -0.249409 0.630900 -0.957533 -0.666918 -0.259750 -0.352440 0.869460 0.025343 0.857341 0.149707 -0.293892 -0.077751 -0.381190 -0.361947 0.306402 0.649083 -0.074256 -0.212731 0.130899 1.213003 -0.610291 -0.347921 -1.070116 1.245844 -0.692864 -0.216211 0.447416 1.141741 0.217462 1.215562 -1.267243 0.270881 -0.181033 0.096376 -0.651431 -0.563188 -0.126864 -0.733822 0.603054 -0.944827 0.151102 0.731750 -0.673586 -0.671292 -0.305535 0.004927 -1.319261 -1.455251 -0.426225 0.017065
为 0.757525 -0.933891 2.428779 0.927881 -0.483686 0.068703 1.418021 0.761823 0.204626 0.960272 -0.506393 -0.035632 0.832330 -0.127409 -2.122930 -2.612931 -1.089642 -0.292427 -0.285811 -0.615840 0.696603 -2.123480 0.387068 -0.852720 -2.244444 0.365563 -1.220784 0.242147 -0.013916 0.457487 -1.414904 -0.966670 0.908318 1.726633 -0.634993 1.868371 0.338874 -0.789451 -0.150019 -0.344182 -0.511622 1.140274 1.390594 2.404131 -0.090960 -0.880862 0.441600 -0.336116 0.070023 -0.673521 -0.595534 1.651800 0.504636 -1.391279 1.450314 2.331994 0.774078 -1.940261 -0.120081 -0.170065 1.167121 -0.101963 0.209746 -1.184011 -0.841859 -1.147051 0.379475 0.957716 -0.084223 -0.449552 1.095629 -0.735943 1.901426 -0.290874 -1.039395 -0.691744 -0.351817 1.416685 0.331343 2.687565 -0.114020 -0.919125 -0.552919 -2.349175 1.373489 1.949061 -1.140796 -0.689402 1.213589 0.375141 -0.491860 0.694898 0.946428 -0.248741 -1.185700 -0.417904 0.143017 0.414522 0.747831 -0.224885
怎 -0.917160 1.885132 0.931814 0.244360 0.496812 0.015834 1.584788 0.633990 1.052173 -0.894818 -0.793657 1.602980 -0.652327 -0.675292 0.035236 -0.697862 -0.047384 -0.062053 -2.581385 0.480191 1.650004 1.123366 -0.896078 -0.330296 -1.955956 1.010086 0.864877 1.185475 -0.676533 0.630434 0.275683 -0.046682 0.230699 1.223870 0.239266 0.106381 -0.205205 -0.806625 0.833221 -0.542404 -0.682786 0.988427 0.785423 2.459369 1.351625 -0.212883 0.383714 -1.642932 1.685344 1.104980 0.180739 -0.467933 -0.385124 -2.938385 0.747093 0.683321 1.099102 -0.203505 1.618731 -0.050407 0.416748 -0.864519 -1.866496 -0.652981 -1.454654 0.922287 0.936472 0.624396 2.168951 0.277581 1.259762 0.911883 -0.220069 -1.589587 -0.229259 -0.923705 1.909715 1.094274 3.421481 2.032422 0.523799 1.087639 0.242009 -1.134980 0.797833 -0.263948 0.818132 0.806112 1.563236 1.485534 1.567326 -1.369331 -1.014779 0.641753 -0.993974 2.468702 0.457627 0.287110 1.539964 0.484166
是 -0.612193 0.094019 -0.825214 0.618688 -1.907915 0.475890 0.494000 0.614014 0.421671 -0.419296 0.069699 0.856355 -0.533945 0.941366 0.900083 0.626355 -0.796753 -0.839327 -0.944153 0.696591 -0.616784 0.046532 -0.365151 -0.677264 -0.623650 0.503038 -0.328333 0.522250 0.125971 0.308313 1.015008 -0.601236 -1.035580 -0.076338 -0.391181 -0.042090 -0.132609 0.375296 -0.838302 -0.235370 0.488960 1.218954 0.517073 0.088168 -0.091455 -0.361979 -0.956390 -0.547450 -1.130817 -1.111077 0.027301 0.278436 0.286308 0.374380 0.599940 -0.710983 1.278067 -0.441790 -0.059977 -0.827069 0.450799 0.228760 0.484017 -0.533391 -0.526703 0.454530 0.509644 -0.137298 -0.884520 0.473515 0.545563 0.495458 0.724768 1.150628 -0.361611 -1.296900 1.688583 0.836781 -0.742158 0.697639 -0.179655 -1.065187 -1.597803 0.018607 0.145526 0.236141 -1.604729 0.813956 -0.909797 0.138730 0.158461 0.212160 1.424829 0.096415 -0.275303 -0.690363 -0.433957 -0.889973 -0.349920 -0.820700
没 0.739740 -1.161557 -0.634503 -0.951526 -1.994769 -0.944248 -1.818645 -0.882731 0.870248 0.996947 -1.669038 1.977581 -0.935151 -1.035192 -1.338002 -1.771453 -0.533895 0.759895 -0.031768 1.034653 -0.172241 -1.214993 0.828013 -0.548252 -0.543371 0.226072 -0.814559 -0.461041 -0.312438 1.555159 0.677856 -1.161150 1.020883 -1.049015 -2.077464 2.119555 -1.881665 -0.157860 -0.124975 1.186347 -0.954276 1.213499 -0.270519 -0.532941 -1.439477 -0.486867 -0.693753 -0.502211 0.954989 0.831834 -0.044274 -0.075629 -0.420035 -0.870903 -0.040707 1.338760 -0.736801 0.158261 0.213465 1.142896 -1.166358 -1.626558 0.140618 -0.333158 2.291692 0.235005 -0.662584 -0.005226 -0.597208 0.279217 -0.572724 0.979932 -0.348759 0.879690 1.061403 0.075934 -1.420192 1.129697 0.481077 1.264745 0.974067 1.129685 2.323490 -2.774093 -0.507684 1.121291 -0.639801 -0.128399 0.787622 -0.682220 -0.354423 -0.772399 1.940394 -0.238599 0.367020 1.162185 0.757369 -1.321828 0.765160 -0.535801
有 -0.396648 -0.691813 -0.497121 -1.042069 -0.720289 -0.403364 0.593152 0.860694 -0.295568 -0.117900 0.271647 -0.481723 -0.535484 0.549324 0.876329 -2.220997 0.263630 -0.086792 -0.006590 0.302514 1.481209 -3.006311 0.711653 -0.392450 0.234718 -1.356315 -0.896372 1.420960 -0.698465 -0.014014 -0.549613 -0.899043 1.512422 0.429149 0.627907 0.598933 -0.196325 -0.569675 0.165115 0.166335 0.350806 0.604808 0.819962 -0.837634 1.488246 -0.053547 -0.115214 0.152724 -0.068279 0.721410 -0.108620 0.309994 -0.130222 -0.019263 0.097637 -0.959259 0.614804 -0.890515 0.532158 0.327338 -0.579398 -0.656719 1.211324 -1.163508 -0.023027 0.275788 -1.000368 -1.258324 -0.323616 0.206725 0.723898 -0.633713 -0.922367 -0.178693 0.759679 -0.345387 -1.426724 0.529464 -0.328762 0.684905 0.470219 -0.700497 -0.070133 -1.818501 0.558412 -0.715939 0.059810 0.499095 1.202547 1.305526 0.326740 -1.472661 -0.432340 0.812355 -0.388570 -0.444286 -1.122137 1.666605 0.015761 0.177180
0 0.147137 -1.287972 -0.582195 0.983992 -0.522301 1.779220 0.936086 0.314367 1.335259 0.612953 0.108046 0.246846 -0.698595 2.045100 -0.138464 1.055406 -0.602333 -3.123979 -0.695336 1.430058 -0.351868 1.431487 0.998931 -0.064174 1.237821 -2.612510 -0.429914 1.926039 -0.216023 1.599821 -0.288865 1.296711 -0.585477 -0.898765 -2.274158 -1.377159 -0.220752 -1.178495 -1.219034 -2.622555 1.072974 1.142480 1.687413 -0.381849 -0.018352 -0.111172 -0.792673 0.111284 -1.628343 -1.908915 -0.124897 0.733263 -2.224818 -0.280713 -1.683863 1.461659 0.158584 -2.117231 -0.720084 0.740980 0.064920 -0.362589 -1.619689 -1.886700 -1.808905 -0.631509 0.546585 -0.552462 0.974986 0.189391 0.192434 1.041975 -0.475776 2.052932 1.225536 0.502827 1.034584 -1.304635 0.086227 1.319657 -0.733468 -0.932375 -0.091892 1.599026 -0.472480 -0.556799 0.153741 -1.594205 -0.294004 -0.284187 0.647300 0.970660 1.529952 -0.560516 -0.781613 -1.577773 -0.278933 -1.967188 -0.777762 0.250662
粒 1.104102 0.792646 1.805900 -1.385033 1.293396 -1.201584 -0.038163 1.350494 0.093024 0.602477 -1.192210 0.243298 1.510599 1.812008 1.024678 -0.568330 2.502822 2.217210 0.578219 1.334318 0.327585 0.168083 1.081071 -1.281325 -0.735141 0.275136 -1.714808 0.290374 -0.606434 -1.277389 1.851675 -1.600807 0.984757 0.343412 -0.865978 0.954949 0.042489 -0.480266 1.332265 0.879359 -1.425676 0.689030 -0.007865 0.787567 0.490747 -0.809332 -2.108819 0.031881 -0.340313 -2.205122 -0.382285 -0.908465 -0.829673 2.333364 2.260507 0.073592 1.370369 -1.769124 0.153857 0.432540 -1.181179 -2.325040 -0.167290 -0.423920 1.295560 -1.173689 -0.146757 -0.188548 0.397478 -0.346978 1.628121 0.632991 0.326046 -0.924982 -1.574838 1.862749 -0.729287 -1.135608 -0.736237 -0.804806 0.037970 -0.928944 0.819432 0.195990 0.558179 -0.095847 1.731359 0.556939 2.418196 2.013598 1.315284 -0.312834 1.601624 -1.174460 1.160716 1.257795 0.915095 -0.028514 -0.313482 0.915180
可 -1.362355 -2.009370 -0.261307 -0.142419 0.471315 0.908201 0.004708 -0.247823 -0.182316 1.610614 -0.622761 0.589689 -0.863132 2.725115 -0.287013 -0.295665 0.612973 1.212494 -0.553312 1.176173 0.052842 -0.775591 0.963707 2.131460 1.638716 0.392222 0.232297 -0.087723 0.588096 0.362935 1.691549 0.084076 1.250844 1.387239 0.581620 0.212657 -0.468168 0.372565 1.223113 0.363708 1.545278 0.011702 0.820381 -0.007908 1.301888 1.781189 0.068167 1.624321 -0.065749 1.262488 0.552940 -1.386800 -1.254327 -1.321837 0.285334 1.719468 -0.098570 -0.135732 0.936576 0.266919 1.440078 -0.489968 -1.495034 2.083497 0.201536 -1.293889 -1.148913 0.868640 -1.259249 1.053235 -0.861138 -0.112794 0.425032 0.243853 -0.331940 1.797508 2.225633 -0.121014 -0.403956 0.636223 -2.352780 -0.334924 1.200255 -0.610460 0.193549 1.441241 1.371664 1.044524 0.905136 -0.964338 1.778956 0.346648 0.964717 -1.747026 -0.078595 -1.218585 1.905542 -0.265272 -0.814923 -1.225087
吗 0.062173 0.250700 -1.397176 -1.359920 0.551325 -1.379935 0.648140 0.353031 -0.097921 0.612918 0.475786 -0.573868 -0.093340 -0.194891 -0.661779 1.627434 0.373258 -0.512263 -0.402059 1.600146 0.333170 -0.298603 -0.120339 -0.407970 1.321718 2.517516 -0.016065 0.058959 -0.470931 -0.858847 0.262753 0.892673 0.999604 0.223327 0.971111 -0.382583 0.268975 1.854588 1.674704 -0.029633 0.515044 -1.092415 0.373465 0.008597 0.586797 -2.425043 -0.075881 -0.177695 -0.257130 0.440347 0.684484 -0.269578 -0.296551 -0.916116 -1.023718 -0.097199 -0.897936 -1.518987 0.834676 -1.297900 0.112346 -1.273057 -0.881933 0.527501 0.741875 -0.517326 -0.528650 0.240227 0.745843 0.428341 -0.742518 -0.984294 0.429549 1.727190 -0.052735 -1.221574 0.639731 -1.712956 -0.270127 0.535911 -0.188771 0.045527 -0.088723 -0.959293 0.904785 1.109014 0.069661 1.227732 -0.080419 -1.062306 1.001513 -0.236501 -0.270816 -0.896670 -0.790242 -0.436972 0.485591 -0.983111 1.311088 -0.174923
一 -1.795056 1.922885 -1.651774 1.010767 1.580840 1.405228 -1.641788 -0.324187 0.856900 1.783603 -0.123573 -0.608817 -0.145762 -0.084799 2.203815 1.179078 0.497096 -1.728659 -1.761290 2.142797 -0.025608 0.303159 -0.893853 -0.685383 0.196205 -1.456429 -0.492331 -1.664547 0.258919 0.872751 -0.903061 0.678248 -0.001900 0.948024 0.095807 0.624299 -0.375875 -0.656590 1.367676 -0.743444 -0.242659 0.970255 0.253284 0.107786 -0.234123 0.025998 -0.318271 0.838257 -1.319756 0.523033 -0.359713 0.538642 0.322976 -0.791751 -1.617733 -0.624521 -0.608461 -1.153476 1.208121 -1.264126 1.586790 -0.091127 0.507573 -0.962781 0.062070 -0.237779 -0.492935 0.491188 1.360891 1.641004 0.664974 0.747244 0.162429 1.158354 -0.335478 -0.186838 1.238658 0.996960 -0.052769 0.297821 -1.552360 -1.772218 -1.455455 0.894226 -2.202410 1.425129 -1.965510 1.398182 0.346488 -0.837807 -0.164715 0.003789 0.184993 0.774836 -0.082724 0.353195 1.874888 -0.280369 1.466362 -0.590199
以 0.686776 -1.308412 -1.677320 0.693046 0.390292 1.344399 0.909424 -2.077109 -1.423617 0.449970 1.304822 0.016663 -0.270318 0.560337 1.945079 -0.282046 -0.941553 -0.255396 -0.962529 1.091086 0.691128 0.571876 -0.368545 0.581296 -0.080384 0.448779 1.399549 -1.670941 -1.136871 -1.079033 -2.070883 -0.027133 0.148114 0.064433 1.448615 0.515165 0.952519 2.607254 -1.384787 -0.532119 -2.501458 0.754170 -0.445994 -0.835783 0.362371 -0.361961 1.027378 -0.324229 -0.542729 -1.133891 -1.124250 1.304379 -1.953506 0.886217 0.421215 0.233928 -1.489557 -0.307449 1.943209 0.419645 0.324384 1.126595 -0.420058 0.246880 1.581351 0.276170 -0.937192 -0.936060 0.564147 -0.509950 1.730189 0.013602 0.217127 2.722013 0.378286 0.057393 0.094216 -0.450284 -0.796005 0.708029 1.685658 1.193701 -0.760572 -0.376696 0.097649 -1.408905 -2.391666 0.633695 0.716121 0.878755 2.574792 -0.179314 0.121308 -1.614128 -1.067477 1.264315 1.303298 -2.079994 0.192296 0.829498
能 -1.035259 -0.607594 -1.130632 0.575474 -0.420495 0.294582 0.152252 -0.191499 -0.162510 1.002793 -0.299319 0.571043 0.304415 0.702475 1.112197 -0.504978 -0.207293 1.582843 -0.079796 0.696799 1.045831 -0.322676 0.519047 1.020732 0.356563 -0.299402 1.151873 -0.268933 0.234938 -0.158559 -0.114421 -1.449358 0.374717 -0.220892 1.365470 0.812689 0.116797 0.798632 -1.384147 -0.970916 -0.984287 1.649428 0.191053 0.470327 0.153747 -1.653069 -1.150967 1.168950 0.728318 0.949303 -0.095443 -0.332715 0.042279 -0.016466 0.442387 1.358382 -0.698672 1.639793 1.035380 0.453421 0.004643 -0.058770 -1.164222 0.895264 -0.133629 1.666832 -0.679627 -0.238372 -0.099735 -0.354433 -0.204390 -0.728263 0.523220 0.728373 -1.022739 0.956152 1.274352 1.050194 0.542890 1.564757 -0.459817 0.291894 -0.250266 0.869761 0.307816 -0.233462 0.381289 0.051700 -0.486344 1.840023 1.011454 -0.623987 -0.279142 -0.535421 0.371284 -0.444367 1.435024 -1.652900 -2.033803 -1.820015
多 -1.191966 2.428159 -1.319663 0.030241 0.859986 -1.901957 2.344829 0.603425 1.385950 0.045221 -0.428978 -0.175116 -0.526231 0.766308 0.186226 0.573135 0.177453 -1.769287 -0.825133 -0.088104 1.189248 -0.040793 0.281504 -0.019712 1.505040 -0.889130 0.071665 0.881974 -0.191463 -1.897357 0.046098 2.137820 -0.156250 -0.782161 0.389184 1.655155 0.634912 -0.311285 0.253153 -0.112605 -0.695664 1.763283 1.747695 -1.152838 0.044296 0.717816 0.143954 0.427473 -1.193480 0.817188 0.429702 -1.543381 -1.353695 -1.412124 -0.600767 -2.516803 0.585276 -3.040323 -0.088422 0.608730 1.309507 -1.604445 0.023244 0.568074 -1.985477 0.464659 -0.385438 -0.984056 0.370375 0.797889 -0.484225 1.758048 -1.194293 0.816987 0.928320 -1.572154 -0.321094 0.788649 0.179725 -0.682252 0.888824 -1.048112 -0.064152 1.664621 -1.199901 1.244579 -0.965783 2.508601 -1.107546 -1.215500 -1.388014 0.368209 0.583702 -0.071223 -0.775332 0.819345 1.313629 -3.165398 -0.353858 1.184780
行 -1.090418 -2.423565 0.752929 1.296960 -1.044796 -1.107957 -0.918052 -1.371715 -0.661114 0.643241 -1.070937 -0.403328 1.345352 0.849985 0.432908 -1.456596 -1.333508 -0.367846 -0.934383 1.993962 0.462559 0.259293 1.516499 2.739522 -0.246394 1.067065 0.852791 0.922886 -2.362048 -0.681240 -0.196413 0.493872 -1.165828 -1.795442 0.985003 0.485097 -0.699963 0.143606 1.303506 2.220407 0.063638 1.009433 1.318408 2.546758 -0.473372 -1.199404 0.071996 0.291544 -0.609919 0.250610 0.197959 -1.174269 0.461218 0.543073 -0.496292 -0.813301 1.032042 1.464001 0.763740 0.931621 0.440940 1.169712 0.280532 1.003770 0.461698 0.692916 1.272985 0.161021 0.964798 -0.035467 -0.613939 -0.210530 0.210196 -1.705948 -0.498363 -0.890621 -1.458674 0.951200 -0.317364 1.491431 -0.140444 1.341693 -0.446120 0.291677 -2.207739 -0.934251 -0.364468 -0.153778 0.797487 0.722395 -1.121518 -0.390555 -1.390639 -1.065558 1.041196 -0.865925 -1.147610 -1.027542 0.927739 0.861245
到 0.557473 -0.019617 -1.420803 0.485072 -2.703186 -0.309364 0.870717 1.202235 0.786688 1.421572 0.922532 1.438925 -0.016114 0.268317 0.809760 -3.216116 1.113545 0.004521 -2.193043 -0.094062 0.307266 -0.192531 0.279000 0.262747 0.883117 -1.472501 -0.133639 0.187316 -0.535098 -0.483150 -2.342204 -0.185879 0.378988 0.756924 2.160081 -0.271677 -1.494874 0.143541 0.841849 -0.773816 -0.948744 -0.611847 -1.515894 -1.015703 1.027372 -1.061397 -0.014259 -0.176469 -0.767571 0.121391 0.855738 -0.942129 1.078740 -0.550137 1.035704 -2.451342 -0.413051 -1.438456 -0.889752 -0.190683 -0.584556 0.125581 -0.192648 0.881811 0.344963 0.538170 -0.551232 0.969542 -2.266055 1.772055 -0.834250 -0.102627 -0.771475 -0.978207 -0.832596 -0.012725 -0.940375 0.991443 0.182033 1.988162 -0.678418 -0.018524 0.131495 -0.665613 1.289232 -0.418935 -0.187718 -0.855291 1.245016 0.473911 0.257140 1.487221 -0.084837 -0.996958 -0.132735 -0.038258 0.730353 -0.995621 0.938666 1.185029
电 -0.519525 0.892038 0.714340 1.129945 -0.431819 0.024619 0.127843 -3.506248 0.559643 1.599299 1.398754 -1.364359 0.209044 -2.518095 -0.313860 0.753149 -1.163472 0.182125 -2.478838 -0.725995 1.103522 -0.776020 -1.589705 1.298475 1.791783 -0.532563 -0.652005 0.424888 -1.364150 1.044672 0.658747 0.168763 0.370921 0.780996 1.523607 0.592401 -1.134672 -0.025084 -1.734483 0.146545 -2.289292 -1.255628 -0.053038 0.707764 0.987884 0.203607 1.021510 -1.430586 0.957065 3.072382 -1.103687 0.940944 -0.636284 0.571657 3.066853 -1.641275 0.389680 -0.807915 -1.393273 1.715503 0.110007 -1.802687 -0.686069 0.060066 0.848794 2.233048 0.192977 0.565191 -1.190197 2.339424 1.976481 -0.836383 -1.791412 -0.098666 -0.097882 -1.105809 -0.778802 2.435120 1.075752 -0.436431 0.433564 -0.127034 2.130399 2.751107 -1.372877 1.994562 -0.349330 -0.730487 0.421605 -0.659815 -1.210101 1.661784 1.195969 -1.950947 -0.159851 -1.394675 -0.760937 0.848136 -0.798034 0.764183
话 1.368356 1.231874 0.710583 0.307803 -0.153325 -1.451671 -0.693770 -1.705284 -1.285952 2.042411 -1.010534 0.201554 -1.440749 -0.403925 1.406503 -0.291648 -0.156300 -0.273956 -3.073342 -2.175072 0.429437 0.672901 1.951532 -0.490787 -0.828001 1.653255 -1.641328 -1.200031 0.244486 -0.351345 -0.275066 -1.352352 1.308594 0.444427 2.716441 1.007595 0.692424 -1.350927 -0.099712 -2.269968 -0.101212 -0.705357 2.224337 -1.395504 -1.474632 0.742016 -0.586741 0.657388 0.140817 1.647617 -0.008337 0.417701 -0.699746 -0.466960 0.842580 -2.297658 0.265401 -0.445620 -2.113733 -1.022493 1.761634 -3.143142 1.228662 0.064822 0.461553 1.317274 -1.485811 1.516994 -0.775140 -0.194126 0.650798 1.147778 -1.187857 -1.283891 -0.504582 -1.007520 -0.201456 1.442468 0.691091 1.174179 -0.507090 2.302971 2.216815 -0.040878 -3.119228 -0.790677 -1.633860 1.537422 -0.624221 0.619155 -0.460211 2.858218 -0.931012 -1.231078 -0.792169 -1.944335 -0.264926 -1.454136 -0.349889 0.530059
请 1.509166 0.305940 -0.544936 -0.023736 -0.761273 0.343606 0.610819 -1.067404 0.488900 -0.375461 -0.499727 0.958565 -0.640621 2.217926 0.229034 -0.264437 0.798770 0.172700 -0.885985 0.608340 3.349896 -1.433534 0.160144 1.416192 -1.349669 0.679562 -0.216866 -1.689194 0.090544 0.432761 -1.448793 0.174791 -0.255271 1.403739 1.796659 0.749254 0.791935 -1.761190 -0.974885 1.441198 0.054872 0.477560 -0.372772 0.341449 -0.363765 -1.678183 0.690799 1.120842 -1.900727 1.913393 0.081095 -0.355621 -1.100674 -1.390504 0.503590 0.028705 1.295215 1.195879 0.832366 0.233658 0.682540 -0.944033 0.392716 -1.588447 -0.441444 -0.846658 -0.982510 -0.243203 -0.420012 0.262963 2.213590 0.863770 1.321316 -0.303920 -0.498709 1.014448 -0.146955 -1.076586 -0.765136 -0.565790 0.849464 -1.133250 0.896014 2.345691 -1.054751 0.225934 1.020903 -1.012679 0.800748 0.492625 -0.645918 -0.057715 1.421831 -1.522970 -0.177704 -2.029511 1.970657 -1.780934 1.618126 0.005442
钱 -0.226384 -0.464633 -0.735482 -0.039606 -0.412702 0.088750 0.572160 0.743947 -0.137200 1.296370 0.039964 0.423283 -0.388366 0.761869 -0.063320 0.114150 0.082238 -0.666345 -0.530888 1.807344 0.452520 0.989489 -0.809412 -0.147978 2.344287 1.501096 -0.524005 1.353129 0.948961 1.218258 0.125328 -1.219539 -0.480958 0.386328 1.281652 1.031549 -2.272837 1.013927 0.076611 -1.338230 -0.341846 1.146091 -0.235526 -0.707399 0.456571 -0.637605 -0.349090 1.621972 -0.404310 -0.823799 -0.222895 1.399932 -1.096245 1.535754 -1.278830 1.609564 -0.095675 -0.097180 0.545285 1.423673 0.882266 -0.927750 1.610529 -1.229008 0.947602 1.307892 0.381415 2.596177 1.040908 0.584501 0.678060 -1.187782 -1.902384 -1.970018 0.194589 -0.675067 -0.447647 0.255184 0.216829 1.726342 -0.256680 0.166877 -1.327713 -0.722672 -0.097456 0.798946 0.958883 -0.134533 -0.214230 1.288252 -1.190249 -0.360987 2.151778 -0.765409 -0.109449 0.259136 0.207229 -1.082526 -0.578598 0.229597
时 2.051607 0.145210 0.455662 1.184779 -0.603615 1.059826 1.340024 0.120030 0.874637 1.911826 -2.401276 0.611423 1.625172 -0.528335 -1.172630 0.720686 -0.263585 -0.227751 -0.852371 -0.207671 -0.117600 -2.242776 -2.499570 -0.702633 1.621280 -0.014180 0.263582 -1.993407 -2.549751 1.436778 0.055678 -1.137365 -0.736939 1.418740 0.770186 2.563244 -0.126094 -0.401781 0.509205 -0.013048 -1.293806 0.626796 1.556959 0.479877 -0.260360 -0.986050 0.880331 0.158895 -2.064071 0.795001 -0.714345 1.001889 -1.058663 -0.494376 0.992216 -0.966748 -0.203951 -3.092860 -1.432196 -0.446857 1.474622 0.415526 -0.022198 -0.727954 -0.179567 -0.742170 -2.163155 -0.685112 -0.011366 -0.553802 -1.147179 -0.381622 -0.524335 -1.430009 0.805389 0.577338 1.178982 0.266283 0.384420 1.783060 0.592292 1.786464 -0.050499 -1.136043 -1.157027 1.004576 0.762984 0.341217 -0.193825 -1.539265 2.125852 2.709698 -0.885237 -2.009234 -1.121225 -2.239680 2.014541 -0.105103 0.012969 0.862225
银 0.588332 -0.093763 -0.639506 -1.824294 0.321202 -0.427554 -0.912973 -1.069090 -1.199671 1.208197 -3.538960 1.929067 2.958583 0.029230 -0.677993 -0.487655 -1.652118 0.150169 -1.423294 -0.469660 0.450057 0.215049 0.019174 -1.424730 -0.666654 -0.499512 1.133785 1.130680 0.936932 -2.369017 -0.607088 -0.455314 1.573444 -0.964029 -0.647442 -1.789406 -0.267840 -1.644393 -0.324505 -0.353148 -0.291754 -1.508035 -1.801831 1.618366 1.701968 -0.144323 1.453357 1.300222 -0.102563 1.712355 -0.408123 -1.019642 1.638304 -0.941966 0.723976 0.871470 -1.493325 1.037636 -0.052980 2.089092 0.133922 -1.071460 1.487219 -0.532935 1.701437 -0.597265 -1.049941 0.899953 -0.959601 1.150803 1.595461 -3.706356 -0.898655 0.271016 -1.497225 0.685296 1.336670 -2.254115 0.115404 1.458073 0.829801 -0.945691 -0.796322 1.847514 -1.078317 -0.493598 0.680989 0.797621 -1.428272 -0.055392 0.005905 0.191349 -0.719031 -0.760890 -0.205724 0.134917 -1.937395 0.979279 -1.168342 2.086029
额 -0.342423 -1.271567 -0.588995 -0.855832 1.783959 0.440524 0.653025 -1.393200 1.247488 -0.038800 -0.648981 0.020596 1.163753 2.391932 -1.512781 0.108988 2.440873 -0.372605 -0.995730 -0.086496 -0.458555 -1.029308 0.398562 1.627713 0.834374 -0.480929 -1.263722 -0.308724 -0.609117 0.831579 -1.312089 -0.699430 0.039564 1.103029 -0.506160 2.678936 -1.522525 -0.043556 -1.335148 -1.628635 0.498463 2.183492 -0.526552 -2.418923 2.625456 -0.002917 -0.885585 1.388792 1.793126 -1.324739 -0.679685 -1.459987 0.402794 1.182544 1.205521 0.635060 -1.559918 -1.008847 -0.611223 0.077624 -0.607747 -0.309310 0.232384 -0.740233 -1.615242 0.334111 0.368261 -0.692903 2.687297 0.644656 -0.730049 -0.213886 0.780048 0.710877 0.720465 0.075803 -0.439593 -0.286599 1.568601 -0.031107 1.702797 -2.127200 -1.535561 0.000354 1.744259 -0.449510 -0.759675 0.809330 0.618917 0.059173 -0.093855 0.804216 2.188606 0.438835 -2.607163 -1.829753 -0.108910 0.109115 0.554509 0.368204
提 -0.341557 -0.645313 -0.477515 0.925674 2.155330 1.693697 1.023070 0.591610 0.299439 -0.214568 1.823938 -2.046843 -2.530596 1.335546 1.610037 0.967380 1.369734 -1.009003 -1.425564 0.851692 0.654871 -1.127711 0.615717 -2.267149 0.619924 0.219788 -0.378807 0.032351 0.862234 -0.602630 0.715119 0.244466 0.984581 -0.473866 -0.709085 1.397298 -2.146338 -1.577403 0.020952 -0.142480 -1.848397 0.845987 2.461659 -0.479127 0.224236 -2.229846 0.302910 -0.965537 0.597028 1.218605 0.348404 -0.499014 -2.310341 -1.638386 0.726246 -0.751140 -2.822537 -0.330936 -1.929653 2.129318 -0.838208 2.683862 -0.694980 -1.142951 -0.377099 0.577047 0.008622 1.143302 -0.891007 1.776534 1.247523 -0.780920 1.487032 0.104251 0.506453 0.243577 1.337049 -0.041480 -0.902087 0.566112 -1.208317 -1.464408 -1.421994 -1.178265 -1.717723 -0.369287 -2.425138 -0.332116 -1.433299 0.527778 1.689219 -0.125846 0.630202 -0.885089 0.419773 -1.954328 0.818499 -1.303532 2.247571 0.396634
天 1.127174 0.442469 -1.979924 0.707639 -2.795772 -1.370441 1.326388 0.614169 -1.029585 -0.176287 0.006675 -0.564720 -1.266222 1.024139 0.593443 0.701636 -0.914869 0.359205 0.319354 0.233895 -0.888259 0.219229 1.072574 -0.427264 -0.357115 0.015482 0.554284 -0.134687 -1.586065 2.755744 0.007731 -0.011929 -0.948071 -1.114910 -0.626687 -1.256157 1.800510 0.914304 -1.055304 -0.729229 0.960469 0.696893 -0.601347 1.045488 1.486940 0.183190 0.789767 -0.913087 -2.070727 1.830763 1.417860 0.472012 -2.493924 -0.094895 -1.707141 -0.458832 -1.307439 -1.194943 -2.256111 1.255287 -0.013267 0.133669 0.542885 -2.028289 -1.567733 0.301807 0.683404 -0.182108 -0.057469 -1.087226 -0.966310 1.179689 -2.587242 -1.385008 2.162260 -0.381937 0.572512 0.243920 -1.117022 1.149485 -1.609387 1.861346 0.797211 0.118397 1.583276 1.171109 -0.149992 0.090517 -1.557743 0.380051 0.275159 0.532286 0.350179 -2.552750 -2.080671 -0.984429 -1.667599 -0.750111 -1.009307 -0.566861
息 -0.489133 1.371873 -1.160328 -0.418050 -0.203573 1.065739 -0.058782 2.995350 1.059394 0.323501 0.672905 -1.194584 -3.405596 0.198561 1.482701 2.820600 0.123420 -0.096628 1.209754 -1.272742 -1.846981 0.112379 0.815465 0.249233 1.419062 -0.635329 -0.879694 -1.370748 0.102375 1.802845 1.120939 0.212708 -1.898319 0.530922 -0.745313 -0.396694 -0.200577 -2.224999 0.140280 -0.808556 -1.658710 1.557263 1.130064 -1.188646 -1.113371 0.401748 -0.161737 0.170704 0.391616 -0.260778 -1.281018 -1.038109 1.501663 1.503671 0.916797 0.469032 1.803135 -3.077847 0.119087 -0.481152 0.291882 1.082287 -0.339868 -1.650959 -1.897237 1.426423 -1.687698 2.171324 0.595344 0.049486 -0.699530 -0.618920 -2.348812 0.424432 -1.413146 -1.528661 2.176229 -0.940899 0.400163 0.252077 1.237306 0.417847 0.347711 2.053675 -0.344055 0.519691 -2.174850 0.952754 1.672026 -0.374939 -0.203827 -1.872025 0.661602 -1.157573 -1.517879 0.720109 -0.604936 -1.629609 1.153789 -1.801448
你 0.885057 -0.784263 -0.459776 1.156474 1.151784 -1.343709 -0.144199 0.138475 -1.539783 1.016295 0.446381 1.386502 0.688960 2.233519 -0.902344 -1.329664 1.302470 1.706875 1.238370 1.735487 0.257719 0.021953 0.172519 1.942529 -0.633578 -1.188815 -0.534055 0.827873 -0.543082 -0.762519 0.881529 1.560944 -1.842452 0.946581 -0.045774 -0.158436 -0.807823 -1.295660 -0.884514 0.946540 -0.721039 0.167663 -1.575686 0.209833 -0.383024 0.774754 -0.072840 -1.218191 -0.386673 -1.013638 0.038634 1.271150 -0.679490 -1.661744 0.383731 0.071085 -0.864250 -0.310607 -1.898012 -0.207996 0.748017 -1.801169 1.146524 0.180863 0.866282 1.765732 -0.968738 2.517966 0.885183 0.062081 1.344269 -0.085135 -1.247366 1.115064 -0.769916 -0.547077 0.587350 0.436682 0.202173 -0.323553 0.722410 1.181662 0.076624 -0.520483 -1.563220 0.730807 0.547868 -0.093801 -0.526924 0.768071 0.103398 -1.117856 -0.480109 0.260509 -1.593544 -1.364812 -0.024447 -0.259290 0.042334 -0.434059
要 -0.191129 -1.458141 0.507799 -1.604900 -0.226174 -0.317089 1.058180 -1.210496 0.232267 0.554274 -0.994436 0.505419 0.550941 1.754865 0.805093 0.679434 -1.794344 -0.234272 -0.283440 -0.289425 -0.397799 0.464355 0.625435 1.201370 -0.267387 -2.204212 1.274930 0.601236 1.104616 -0.160956 -0.109919 0.495973 -2.363406 -0.161594 -0.094013 0.120501 1.020588 -0.372842 0.054164 -0.515282 -1.045112 1.707669 1.249676 0.927371 -0.632300 -1.902460 0.238337 0.866322 -1.060946 0.525325 0.862233 -0.994982 -0.843262 -2.337714 0.236504 -1.606287 0.447110 -0.181731 1.185795 -1.157260 0.073972 0.829955 -0.191294 -0.659653 0.056462 1.321714 1.896747 -0.727827 -0.740556 -0.021869 0.604572 -0.560192 -1.314895 0.965311 -1.277680 1.520154 1.457796 1.109943 -0.358224 0.453430 0.241506 -0.459425 1.521706 1.354543 -2.490619 0.025246 -1.516850 1.116571 -1.603203 0.859046 -0.842743 0.987992 0.479434 -0.455450 -1.042700 1.484698 1.706192 0.345041 -0.615144 -0.734759
通 -0.728882 0.329645 0.512016 -0.113148 1.953586 1.503180 1.523524 -0.679557 -0.774446 0.937445 1.911861 -0.136503 1.583901 2.688300 -1.452554 -0.259601 0.253463 0.711851 0.835864 -1.554646 1.262447 0.658858 -0.133636 0.962552 -1.218202 -0.398013 -0.187608 0.447818 -0.427766 -1.125997 0.181642 -1.282603 1.925101 -0.079674 0.110535 0.353885 -0.537761 -1.074968 -0.650031 1.037281 -0.745256 1.827203 0.425808 -0.702698 -2.089735 -1.510232 0.649663 1.313238 -0.547883 2.041599 -0.168555 0.448409 1.866157 0.485081 0.356460 -0.675006 0.544190 -2.102588 -0.840658 0.356042 -1.693518 0.052803 0.721777 -0.358924 1.957833 0.259981 -0.443604 -0.090629 2.004907 0.017487 0.188414 0.771977 0.164957 -0.985486 -1.374979 1.181808 0.876195 1.553095 0.366737 -0.086846 -0.315200 0.344977 1.463582 0.359663 0.691250 0.922422 0.689409 -1.198847 -0.209953 0.595059 -0.354516 1.611700 0.049958 1.774299 2.897570 1.025852 -0.625512 2.107697 0.741883 0.117117
如 0.412669 -0.693615 0.435468 1.020478 0.127901 0.001645 2.219853 1.582803 -0.119925 -0.235256 -0.993182 1.126670 1.334783 0.487626 0.608646 -0.411724 -1.616733 -0.261617 -2.428388 1.006911 0.960967 -0.653004 -1.245873 -0.032621 -0.893147 0.192450 2.820033 -0.565498 0.115391 0.807512 -1.123144 -0.970957 -1.557980 -0.498812 0.786445 -0.075840 1.211704 -0.594588 0.857659 0.395479 0.961498 0.234750 2.494437 -1.069784 -1.251462 0.457463 -0.472984 -0.068240 -0.293930 0.018240 0.244631 -0.684993 -2.023460 -0.593720 1.328098 2.630895 -2.352678 -1.486223 0.064541 0.764386 -0.034830 -1.716724 -2.868742 -0.240610 -3.664071 2.576388 -1.333017 0.490817 -0.821069 -1.406712 0.160856 0.215172 -0.668836 1.685556 -1.280690 -0.282531 0.473201 -1.513997 -1.609446 0.428350 -1.395491 0.037280 1.988953 -0.689751 0.945435 1.912472 0.866214 -1.343560 0.612957 0.857400 0.679132 -1.841421 -0.554429 2.158243 -0.106824 -2.415670 0.812151 -0.989146 0.365072 0.837694
号 -0.471425 -0.226556 -0.894441 1.285426 -0.605347 1.084604 -0.276639 1.992507 -0.461921 1.808845 -0.743991 1.054257 -0.832263 -0.885115 1.343391 -0.232662 -0.507090 0.824893 -1.965713 1.218911 -0.688399 1.421966 -0.131738 0.684999 0.241821 0.714134 -0.724854 -0.613625 -0.208417 -1.106898 -0.861284 -0.303857 -0.418951 0.600897 -0.842636 -0.965418 1.013478 -1.170631 -0.764179 1.239442 0.230534 -0.632335 1.097513 0.480221 1.117284 0.922671 1.011085 -1.139549 -1.274501 -0.186460 -0.360485 -1.460763 -0.250702 -1.848461 0.359776 0.779285 2.455647 -0.643817 -2.554747 0.172713 -1.369011 2.265925 -0.960663 1.282023 0.376462 -1.620219 1.706029 0.587906 -1.055277 0.090507 1.787167 -1.044347 -2.336665 1.147795 1.434570 0.472440 -0.740396 -2.169211 0.135955 1.786752 -0.402347 1.483480 0.038093 -1.742245 0.285107 -0.379907 0.297099 -1.764302 0.397770 -0.944392 0.388506 -0.416924 0.914274 0.211501 0.156120 -0.016513 -0.729714 -0.259352 -0.575936 -0.212734
卡 -1.945575 -0.225146 1.392258 -0.467267 0.448593 -1.478436 -1.259466 -1.730292 0.314641 1.302315 -0.719764 0.500719 1.454863 -0.282873 1.312508 -0.845946 0.170504 0.440445 1.402385 0.478657 -1.033841 0.881905 1.002926 -0.787785 -0.709437 1.454076 2.697789 1.139371 -1.679510 -1.195491 -0.059507 -0.158371 -1.163946 -1.187850 0.877699 0.902205 -3.419125 -1.390218 0.439604 0.742934 0.823423 0.894198 -0.655493 0.513812 0.169566 0.369525 -0.295914 -0.431644 -0.803846 1.648685 0.495869 0.719556 -0.545013 -0.640290 0.167775 2.715424 -0.869762 2.135407 -0.917716 0.791751 -0.192344 1.555481 0.141952 1.335628 0.718552 1.039723 0.528004 0.802791 0.681374 -0.598721 1.545962 -2.557412 -1.324185 -2.033431 -0.094779 -1.068655 0.507994 -0.925552 1.445524 1.904995 0.410325 0.272761 2.048616 0.968806 -0.354241 -0.482816 -1.290877 -0.045745 1.933378 -0.593388 -1.237914 0.101888 -1.870572 -2.104126 0.327587 -0.566129 -1.673780 -0.673637 -0.277763 1.818922
y 0.698010 -0.918036 -0.912142 -1.054561 0.008178 -0.213116 0.267892 -0.409788 -0.086952 -0.640997 0.902139 -0.260189 0.449918 -0.191310 2.281155 -0.310306 0.122716 0.192439 1.061698 0.129213 1.739195 0.904640 -0.671064 -0.191604 0.204187 0.366807 -1.807354 -0.307848 -0.235902 -0.521633 -0.705628 0.123521 -1.293481 -0.879383 1.128696 0.308403 -0.317047 -0.782863 0.050791 -0.386932 0.149284 1.962388 1.975412 -1.615878 0.978488 0.005520 0.882532 -1.757826 -0.111499 0.965446 1.382451 0.898655 -0.363869 -0.715649 0.494345 2.319487 0.188278 -1.709590 -0.986888 1.384795 0.122400 -1.249735 -0.064119 -2.194273 0.322016 -0.917229 1.203254 -0.626540 1.594412 0.431597 -1.168356 -0.477308 0.212489 -1.237929 0.115438 1.554470 0.498824 -0.579532 0.150840 -1.440257 -0.028798 -1.221691 0.915666 -0.895037 0.342064 -0.554403 -0.566579 0.802518 -0.864146 -0.839092 -0.141427 0.256809 1.038931 0.032530 1.016895 -0.358973 -0.058548 0.441397 0.287294 -0.825795
开 0.466361 -1.151500 2.003060 2.043938 -0.022933 -2.143973 -0.491632 1.193915 0.482837 -0.071146 -0.066751 -0.599049 0.695266 -0.386414 0.970076 -0.375538 1.268679 0.986000 0.982188 0.607309 1.100487 -0.973308 -0.039734 -0.136268 -1.349256 -0.007064 -1.026820 -1.043222 0.733562 0.716319 0.412229 -0.329137 -0.329748 0.197082 -0.329380 0.168191 -1.694472 0.667304 -0.349339 -0.391538 -2.683678 -0.465867 0.901808 -0.305455 1.529001 0.090388 -0.608529 0.331154 0.483642 -0.944210 -0.677780 -0.541987 0.553816 -0.122389 1.915201 0.141775 -0.102679 0.520559 1.805061 -0.549883 0.458512 -2.922317 -0.380920 -1.127773 2.889810 -0.841951 -0.983761 -0.602377 -0.642867 -1.670648 0.017985 -0.360848 0.116496 -2.331886 0.428410 -0.200018 -0.020855 1.331235 -0.622503 -0.834619 -0.346716 -0.435082 -0.592301 0.974442 -1.999788 -2.634314 0.897007 0.853081 -2.397575 -0.848876 -0.993677 -1.132055 0.027776 -2.192350 -1.169148 0.359175 0.775390 1.743434 -0.289922 -1.367150
何 -0.821352 0.974475 -0.206757 -0.881212 -0.467933 -1.995915 -0.205680 -1.405592 1.142460 -0.941946 1.092084 -1.191024 -0.912340 0.611895 0.431062 -0.012529 0.224763 -0.771902 1.163577 0.354996 2.811752 1.827964 1.727031 1.399966 1.177814 0.303648 0.922412 -0.851496 -1.038833 -1.670165 1.060029 0.564005 0.741650 -0.984932 1.336758 -1.629752 1.685643 -1.428938 -1.424637 -0.311316 -1.603296 -0.168792 0.020959 -0.566489 2.063851 -0.617731 -1.906040 0.292565 1.538808 0.434511 1.347469 -2.327133 2.590565 -1.500257 -0.953894 -0.717535 -1.696311 1.018447 0.338290 -0.950812 -0.840132 -0.259385 -1.663780 0.186482 0.769418 -0.892969 -1.370991 1.327215 1.059571 -1.269498 0.883651 0.042394 -0.199955 1.873380 0.760598 2.030154 -1.411872 -1.506747 0.342431 -2.452022 1.350921 0.056404 -0.634524 0.133152 0.676312 1.286668 0.370257 -1.778772 -0.254088 0.566525 1.051587 0.653684 -0.694737 -0.212594 0.599129 0.609927 -1.264750 -1.231627 1.907787 -0.341023
信 0.211590 -1.134129 2.152942 -0.676299 0.862610 -0.067657 -2.120601 -1.521816 1.406898 1.100893 -0.757012 0.338063 0.235579 -0.316089 -0.012511 -1.028370 -0.028370 -0.275387 -1.567231 1.497853 2.636380 0.083329 0.811470 -0.964234 -1.054773 -0.011108 -1.695495 0.456446 1.448797 -2.149514 1.501295 -1.383619 0.533458 -0.258858 1.268945 1.100448 -0.367637 0.061689 1.266448 1.884207 -0.187621 -1.983099 -0.993917 1.092847 1.770171 -1.165023 -1.211529 0.491240 -1.303575 -1.706828 -0.088876 0.670470 -1.237311 1.440008 -0.097935 -1.110121 -0.390137 -0.365542 -0.801032 1.037768 0.017364 -0.392898 1.051217 -0.909162 -0.049348 1.492321 1.374347 -1.774728 0.054736 -0.678252 1.872651 -0.374327 1.528464 -0.785025 0.076884 -0.798977 0.802197 -1.648980 -0.410812 -1.253436 -1.276136 -1.382779 -1.821702 -2.719025 1.367444 1.184214 0.752684 1.160690 1.003534 1.192852 0.844899 -0.591900 0.713237 0.705435 2.274904 1.953466 0.290870 0.949568 -0.435239 0.237305
好 -2.108157 1.274932 0.066731 -0.559937 1.153448 -0.854220 1.585211 0.074419 -0.938646 -0.033876 1.308015 0.653828 0.551953 0.486123 1.465876 -1.630019 0.220167 -0.344453 -0.832244 -0.633925 -0.103342 1.188174 -1.522366 0.023898 -2.544789 0.229596 0.517673 0.542373 0.704192 -0.585553 0.689604 0.157722 -1.258901 1.132441 0.679197 0.711774 -0.832585 -0.190209 -0.684851 -0.002988 1.803353 1.199736 0.298459 -0.152122 -0.072490 -0.453856 0.165913 0.550968 -0.883488 -1.063630 -0.641099 -0.502076 -0.764530 0.323706 0.273159 0.175164 -1.305688 1.305509 0.379795 1.649527 0.664377 0.400284 -1.021448 -0.736789 -1.183760 -0.379438 -0.497415 -0.039278 0.097026 0.025906 0.085731 -1.008688 -2.194314 0.604920 2.234627 2.759785 -1.208059 0.013288 -0.449261 -0.234624 -1.369028 0.719312 0.342355 -1.211011 -1.454009 0.815651 0.033879 -0.528951 2.139468 -1.430239 0.414082 -0.463065 1.416086 -1.800136 -0.967556 -0.942637 1.183993 0.031159 -0.169160 -0.329957
1 -0.874331 0.105782 -0.902141 1.119109 -0.742950 -0.176087 -1.387509 1.290269 1.933521 0.456062 0.425565 -0.717707 0.547126 0.441780 1.232379 0.109467 -0.054941 -2.070311 0.398670 1.708616 0.280104 1.533549 1.113139 -0.173353 2.056770 -1.772670 1.458604 0.016252 0.728371 1.526136 -0.599945 0.392194 0.734812 -0.589280 -0.460256 0.074516 -0.105470 -1.305357 -0.182067 -2.013655 0.996746 1.262720 1.496880 0.082434 -0.828037 0.722115 -0.127801 -1.108921 -1.824251 -1.433721 0.330285 1.204424 -1.497755 -1.399988 0.029021 0.964991 -0.051979 -0.879026 -0.126750 -1.071261 0.806717 -1.031249 -1.391263 -1.748950 -0.709909 -1.092215 -0.289651 0.084102 0.998042 0.338390 0.623025 0.090347 -0.278295 1.706359 1.033780 0.275693 1.091037 -1.830689 -0.078052 1.042008 -0.732292 -0.381991 0.323511 0.428747 0.511989 -0.277887 -0.062412 -1.554829 1.563944 -0.453524 1.054366 0.859896 2.288889 1.648251 -0.154908 -1.270178 -0.688866 -1.920910 0.307865 1.376802
个 1.195688 -0.385477 -1.854755 0.812593 -0.430739 1.030295 1.052278 1.636002 -0.450871 0.663606 -0.251748 -1.296844 -0.207628 -1.420686 1.848682 1.027691 0.668508 -0.975342 1.131235 1.909420 0.497533 -0.665451 1.322100 1.341599 0.082400 0.574049 0.217899 0.283472 2.136074 0.225417 1.094809 0.099547 1.184376 -0.283694 -1.226643 -0.111292 0.325207 -1.070717 -0.118901 -1.062294 1.396682 -1.597105 1.673739 -0.577569 0.122843 -0.113612 -1.386222 -1.302683 -1.696173 -0.824492 -0.310541 0.178244 -1.162319 -1.962710 1.293397 -0.131601 -0.513088 -1.117550 -0.297850 0.463136 -2.110824 0.447841 1.211051 -0.212945 -1.291801 0.782003 1.744967 -0.769695 0.775150 -1.748991 0.035635 0.140926 -1.868768 1.662828 -1.195778 -1.425336 0.808236 0.307577 0.616128 0.045021 -0.341716 1.140327 -0.378970 -0.066288 -0.294808 0.261857 0.557089 0.267813 0.496707 0.781927 -0.304015 2.130860 1.510535 -1.088305 -1.679909 -0.231937 -0.007264 -1.574550 0.718828 -2.685503
在 -0.435923 -0.264534 -0.161704 -1.313758 -0.707252 -0.690962 0.697100 -0.448163 -0.101312 1.330922 1.894532 0.764752 -1.353720 -0.071224 1.300448 -0.814621 1.308235 -0.941883 0.408877 -0.391398 -0.042318 -1.864717 0.030927 -1.597599 0.012407 1.780413 0.034862 1.431633 0.895357 0.460242 -0.640132 0.367312 0.452168 -0.662837 1.764037 0.226351 -1.454806 -1.004528 -0.690510 0.667666 -0.557643 0.375797 0.814278 1.922961 0.677434 0.840242 1.218447 -0.072938 1.029877 -1.578345 1.354557 0.180709 -0.738739 -0.787529 1.131757 -0.664149 -0.305465 0.506434 0.280311 0.290870 -2.087338 1.469508 1.681885 1.114680 1.356247 0.438533 -0.236412 0.797862 1.518614 1.814907 1.956897 -0.574078 -0.871194 -0.739737 -1.201291 0.098884 -0.090204 -0.698971 -1.647242 2.730443 -0.998794 -0.442135 0.858543 -1.745163 -1.500243 0.520507 -0.181238 -0.988778 0.342774 -1.098637 0.147043 0.203462 -0.223002 -0.555304 0.033839 -0.912418 -0.043314 -1.035601 -0.988644 1.220191
度 -0.144701 0.202339 0.424447 -0.962001 0.409467 0.503973 1.864820 -0.638952 -0.625733 0.435710 1.105894 -1.286704 -1.667481 2.561815 -0.001548 -0.929563 0.109881 -0.466001 2.350770 -0.387500 1.892976 0.075787 -0.013900 -1.427948 2.065266 0.248271 -0.458263 -1.094996 -1.707679 1.673470 0.316220 -1.655658 0.852259 0.639428 1.351270 0.213110 -0.843579 -1.767903 1.320605 -0.071949 1.156482 -0.402909 -0.135656 -1.823732 -0.288031 0.638315 -2.642823 -0.561764 -0.463268 0.156491 -0.385940 1.657164 -0.941827 -1.125000 -0.392754 2.340645 -1.059964 -3.367708 0.082874 0.483970 1.102000 -0.425723 -1.356150 -0.750672 0.638583 -0.289571 -0.325377 -1.182690 -0.082601 0.563752 2.560174 -0.410836 0.854389 0.238809 -0.349689 0.566118 -1.985836 0.692800 -0.228138 1.607046 0.633679 0.555345 -0.548217 1.340611 -0.896840 -0.530049 -1.253251 -0.833936 0.269854 1.209924 0.802035 0.499632 0.705192 0.503300 -0.710891 1.075659 1.438456 -1.145768 0.429929 -0.658743
过 -0.349315 -0.281716 1.486059 0.624194 -1.192912 -0.400289 -1.037646 1.192834 -0.684007 0.111663 0.993399 0.475906 -0.680810 -2.564975 1.403446 -2.202208 1.680844 0.725604 -2.020677 0.166077 0.782173 -0.131787 0.813649 0.503034 -0.603517 -0.227289 -1.683846 1.326874 -1.222975 0.325774 1.304450 1.223350 -0.568578 -0.102708 1.659268 -1.637486 0.080408 1.051544 -0.801233 -2.091597 -1.499688 -1.125819 0.293740 0.564727 0.477269 -0.557943 -1.376323 0.483552 0.471012 1.764993 -2.106887 0.673433 1.237058 0.436185 2.465253 -0.797465 -0.907562 -1.206112 0.225637 -0.102101 1.144974 -0.231196 -0.986165 -0.535019 1.300752 -0.480781 0.424190 0.972149 -1.023239 1.272760 -0.219049 -0.283285 -0.347140 -0.928062 -0.080469 -0.142532 -0.465431 -0.037173 0.073761 0.751098 0.723308 -0.179614 0.034827 1.665443 -1.032048 -1.363318 -1.235244 -1.698582 -2.133343 -1.140214 0.095111 3.082400 -1.347958 -0.834300 -1.068130 0.064708 2.344788 1.104811 -0.191924 -0.859852
期 -0.305485 0.211147 -2.108594 -0.657281 -0.363158 -0.464977 0.582383 -2.168364 0.741817 0.003627 -0.528787 -1.522312 0.059428 0.403498 0.446273 1.713265 0.845670 0.176362 -1.246192 0.740390 -0.065966 1.638867 -0.049145 0.235839 0.332440 -1.887085 1.071510 -0.299243 -1.648273 1.765720 1.624740 0.284968 -0.778828 -1.900054 -0.558661 2.409577 0.589913 0.418428 0.056006 -2.021607 3.354747 0.254087 0.228129 1.034658 -0.598338 0.834572 0.833914 -0.784613 -0.611966 -0.367437 -0.831961 0.931293 -1.053159 -0.765041 -1.114194 -1.029251 0.786098 -1.396747 -0.958629 1.450838 -0.397945 0.955259 -0.826705 -0.361612 -2.641874 0.673615 -0.543252 2.606987 2.411912 -1.119300 0.717789 0.261799 -1.410587 0.914021 0.036666 -1.071291 1.185108 -2.141034 -0.099248 1.147683 -0.992662 -1.645947 -1.428998 -0.150196 0.300889 0.885266 -1.735243 -1.350784 -0.872436 -0.191073 2.095046 0.528857 1.784527 -0.927453 -1.502772 -0.722349 -0.372782 -0.245261 -0.436036 0.739093
前 -1.419241 -1.300114 0.335422 2.109054 -0.606337 -0.150029 0.371046 -0.511858 1.950925 0.253386 -0.463452 -0.341336 -0.909722 1.220414 1.634134 0.845013 0.830780 -2.242303 -0.906483 -0.240476 2.006003 0.271965 -0.956247 1.123755 1.001620 0.068150 -0.986401 1.530957 -1.050519 0.574289 0.546378 -2.452189 0.283027 1.786921 -0.268656 0.131981 0.316072 0.607448 1.286394 -0.989035 2.317429 -0.436103 -1.194544 0.942627 1.391295 0.666561 -0.684496 0.821314 -1.520724 -1.271517 0.308084 0.256384 -2.470079 -1.002319 -0.982504 1.608490 -1.817510 -2.123540 0.745369 -1.366030 -2.047337 -1.384532 -0.659314 0.516519 1.513203 1.549813 -0.690617 0.744189 1.834807 -0.276262 0.553824 -0.461362 -0.585274 1.354873 0.402087 -0.282543 0.669221 -0.505376 0.150789 -0.402786 -1.821972 0.506308 -0.725453 -0.095944 0.594381 0.476233 -1.471510 -0.323665 1.810076 -4.683942 -1.318372 -0.832297 1.084101 -0.342845 -1.816287 -0.844196 0.712974 -0.262885 -0.916407 -0.047227
用 0.445032 0.185506 -0.972932 0.259747 1.890930 -0.325443 1.756093 0.633959 -0.834836 0.559710 -0.872292 -0.956055 0.365508 0.465140 1.006111 -0.598407 1.361782 -0.118222 0.741242 0.044407 -1.046063 -0.382750 0.563089 0.083798 1.254170 1.129796 -0.666293 -0.578545 0.419373 0.799508 1.483733 -0.997691 0.347869 0.608262 -0.487024 -0.271661 -0.798831 0.625749 -1.022548 0.779394 0.727961 0.029917 -0.201877 0.615176 0.079417 -2.193504 1.486860 0.214689 -0.563614 -0.168256 0.700544 -2.190135 1.316544 0.394692 1.968845 0.889926 1.089961 -0.604622 2.932921 0.445902 1.170182 -0.568517 -0.765510 1.047744 1.062311 1.160158 -1.258724 0.754282 0.368296 -0.625889 0.127443 0.623261 -0.226188 0.867182 1.156635 0.909308 -0.707140 -1.137390 -1.452516 0.746893 -1.679835 -0.781124 -1.198630 -0.929620 -0.711896 -1.527778 -1.002406 -0.220606 0.155350 -0.191138 0.610537 -0.059613 -0.655735 -1.112786 -1.916272 -1.049284 -1.183637 -0.123918 0.493210 -0.911639
利 0.588942 -0.859556 -2.049846 0.836274 -0.357157 -0.352959 -1.707587 -0.105159 0.224109 1.557866 -1.521504 -1.220380 -1.316438 1.711676 1.701938 0.466299 -0.584001 -1.614132 -2.580868 0.969297 0.984610 1.791667 -0.151982 -2.666602 0.939398 -3.014651 -0.000410 1.749194 1.136557 0.641426 2.151651 1.225370 -0.937998 -2.378823 -0.117532 -0.899164 1.193520 -0.818240 0.119809 -1.210798 -0.232403 -0.137935 -0.508147 0.471199 0.198645 -1.069718 0.969729 0.598091 -1.973680 -2.162973 -1.625751 0.712992 -1.715108 0.544104 0.345485 -0.775314 0.279254 -3.378557 -1.039147 -0.107123 -0.685015 -1.588143 -0.732401 -1.208624 -1.618749 1.367791 0.133766 -0.543507 0.187610 -1.451458 -0.539798 0.049652 1.432667 -0.159817 -0.031012 -0.928596 2.025141 -0.246996 0.688209 0.294850 -0.997932 0.629131 -1.920356 1.033925 1.573200 0.296832 1.327093 0.223437 -0.581443 -0.872529 0.783855 0.257740 2.868376 -0.237708 0.237973 0.918292 2.782176 -0.471557 -0.407308 -0.330105
少 -0.763880 0.503022 -1.449515 -2.012058 -0.142204 0.994039 -1.426454 1.443650 2.764339 -0.042393 0.181760 -1.171988 -2.055385 0.592157 0.773693 2.188462 -2.281542 -1.508860 -1.449512 1.053093 0.205099 1.618061 1.097462 -1.990630 -1.415524 -0.762832 -1.107228 4.744633 -1.188179 0.773705 1.172367 2.030404 -2.450646 -0.764748 -2.238465 -0.686230 -1.160412 -0.221857 -0.282037 -0.809922 1.153398 -0.672327 1.284143 -2.735176 -1.064499 -1.044042 0.599727 1.496146 -1.243670 0.448439 1.469676 -0.323317 -0.472958 -0.867929 1.218198 -2.256829 -0.908655 -1.903851 -1.618173 -1.522127 0.882813 -2.000901 0.802754 -1.617506 -0.695524 1.603083 -0.497795 -1.239636 1.767886 -0.351076 -1.315130 0.342077 0.204056 1.587293 -1.361905 -0.285016 0.425058 -2.271093 -0.281223 1.203403 0.505894 0.196698 -1.314128 1.806169 -0.004834 1.576117 0.357321 1.445760 0.580054 -0.260485 0.908585 0.862707 -0.667489 -1.806466 0.693128 -0.273152 2.071895 0.144627 1.702164 -2.066536
后 -0.097981 -0.331789 -0.524050 0.648507 -0.159479 -0.408397 0.186268 -0.306413 0.856412 0.435499 -0.115871 0.853618 -1.947395 1.899112 0.533918 1.213548 -0.474636 -1.341980 -1.823144 0.190334 1.675978 -0.347652 -0.166849 0.128800 1.673283 0.818955 -0.461979 0.691233 -0.179617 0.738869 0.326030 -0.792378 -0.000264 1.716201 -0.395497 1.766690 0.970075 -1.091745 2.628588 -1.594716 0.623656 0.093495 1.080387 0.464625 1.781271 0.471946 -1.035513 -0.120812 -1.516315 0.778634 -0.848720 0.118860 -1.834457 -0.062170 -1.328380 0.061377 -0.045640 -0.638721 0.198627 -1.263731 -0.576816 -0.176662 -0.262665 0.377793 0.814428 -0.008802 -0.074581 1.259621 -0.521968 2.095506 -0.511373 -1.424652 -0.490687 1.476856 -0.586520 0.440102 1.456216 1.297346 -0.238606 -1.270367 -0.248495 -0.966470 -0.968410 -0.413612 0.512797 0.501690 -0.643832 -0.399556 0.165448 -3.064393 0.665216 0.956369 -2.297338 -1.626556 -0.671679 -1.244727 0.827977 -2.067232 0.771173 -0.096815
手 0.719159 1.358231 -0.314737 0.577811 0.738354 1.759830 0.012065 -0.192124 1.302217 2.363543 -2.102028 -0.351882 0.422489 -0.612457 1.024387 -1.633979 -0.359102 0.483408 1.229559 0.205500 -0.158479 1.034868 -0.178030 -0.008246 -2.166233 1.888924 -0.417928 0.789425 0.548893 -0.410892 2.100726 -0.495425 0.533556 0.051420 3.629044 0.823887 -0.079831 -0.716418 0.805947 0.418670 -0.574325 -1.540060 0.820509 -0.173899 1.255918 -0.357448 0.132800 0.638046 -1.704259 -1.771982 -1.674979 0.714116 -0.266805 -0.176894 1.159054 0.314986 -0.431846 1.275886 -2.115062 0.447235 -1.509763 -0.922530 -2.285548 2.956079 2.610869 0.128931 1.762674 1.595206 -1.698511 -0.568818 1.376418 0.467411 -0.713037 1.819736 1.492435 -2.513761 0.140782 0.238422 -1.835986 2.465377 -0.466962 -0.954781 1.974702 0.920476 0.024969 -2.984971 0.567452 0.381909 2.627496 -0.865892 1.203551 -2.811345 0.343098 -0.285945 1.067925 -0.482697 -2.161473 1.790147 0.217340 -0.880563
审 -0.504331 -0.347163 2.892012 0.787231 0.003218 -0.767455 -0.186190 0.458324 0.184459 0.758037 -0.789639 0.539895 0.711476 -0.927242 -1.096661 -0.600869 1.258535 0.330717 -0.977439 -0.812711 -0.001084 -1.392882 1.141539 1.949223 -0.503421 -1.391006 -0.284157 1.492159 -3.008566 -0.977324 -0.080694 -2.243699 -0.038118 -0.035390 1.528005 -1.529342 1.177522 -1.710527 -0.074215 -0.407351 -0.971932 2.007614 0.860041 0.023169 -1.198467 -0.706404 0.677224 3.763513 1.715211 2.719537 -0.950031 1.537401 1.392391 0.104612 1.218401 -2.291929 -1.518577 -1.733934 1.082602 2.898572 0.322679 -0.688482 0.504112 -2.244731 1.057368 -0.257121 0.812626 1.147210 -0.485503 0.866610 -0.055117 -0.948571 0.863575 -0.764072 0.182287 -0.279669 1.548672 1.968741 0.349393 0.257727 1.933214 0.915406 0.981110 1.257599 -2.565150 0.604071 1.029147 0.929496 -0.314657 1.064883 -2.870705 3.547446 -0.536523 0.982899 -0.001318 0.621701 -2.530756 -0.427835 0.173179 -0.070305
申 -0.146605 0.137742 1.954605 -0.188960 1.816676 -1.134191 1.088607 -0.127831 -0.149299 0.328321 1.973107 1.097464 0.201770 0.521874 3.860229 -1.695332 -0.384163 -0.410777 1.289820 1.743860 -0.548251 0.619198 0.846722 -0.595396 0.282659 -1.102825 -0.048877 -1.247248 -1.714761 1.440067 0.127419 0.791182 1.590394 1.524624 -0.429454 0.110962 -0.330089 0.752173 0.549175 -2.728375 -0.275113 0.171318 1.482927 0.128157 1.507350 0.276603 1.120065 2.150974 1.618375 -0.291239 0.355749 0.268788 -0.387521 1.460498 0.323773 -0.188009 -0.519759 -2.089121 -2.012417 1.505080 0.054810 -0.430737 1.030148 0.691550 1.698918 0.339460 1.263619 0.884831 -0.782117 1.269243 -0.482973 -1.294204 0.740997 0.376691 1.858031 1.005588 -0.707018 1.653326 -0.744380 0.532763 -2.597572 1.333339 1.059135 -0.343396 -0.199001 2.785827 -0.813081 -0.496428 -0.753615 -0.498053 1.540138 1.711943 -0.827768 -0.793383 -1.115583 1.051374 -0.724698 -0.359172 -0.369962 0.650911
证 1.088578 0.956448 -0.758792 1.497595 2.759520 1.577550 -2.354950 -0.057731 -1.390179 0.458076 0.281235 -0.913050 -0.478319 -1.740338 -1.396726 2.206636 -1.927816 1.815586 -0.039897 -2.021651 0.309867 1.896427 -0.600016 2.895072 -0.980892 0.051668 0.148534 -1.516002 0.477979 0.700998 1.127217 -2.933621 0.164481 0.816087 0.200025 2.344536 -0.133126 0.425631 0.787491 0.949570 -0.825879 -2.425821 2.326103 1.161266 1.887237 -0.657592 0.568828 -0.044618 0.521078 -0.586894 0.685285 -0.905409 0.123601 -0.030890 0.192417 -1.689370 -0.823083 2.410317 -2.230085 -1.350951 -1.715946 0.198839 -0.391024 -1.076712 1.640984 1.126353 0.631770 0.484042 -2.225854 -1.843464 1.668391 3.333250 0.177341 -0.626122 -0.560309 -0.677280 2.023460 -0.353820 -0.336677 0.663699 0.126368 0.641656 1.458357 0.777088 2.017216 1.634145 -3.629274 2.702360 1.037341 -0.771353 -1.348890 0.601741 1.121678 -1.047780 0.784972 -0.098444 -1.135143 -0.187161 0.441231 1.045568
现 1.829990 -0.403309 -1.120191 0.979760 0.362061 -0.069802 -1.216378 -0.720548 -0.456907 -0.544337 0.246243 0.243069 0.806811 0.013847 1.053919 -2.386487 0.005907 1.265912 -1.210334 0.759004 0.882328 2.141437 1.133169 0.517002 -0.404261 0.670784 1.881711 0.350967 -1.548350 -0.369725 0.159960 -2.094003 -0.718607 3.431642 -0.389359 2.619996 -0.807427 0.640739 2.016142 -1.094093 1.791319 1.041404 -1.151125 -0.519956 -0.848784 -0.338536 -1.672513 -0.130497 -0.931790 0.339447 -1.295280 1.074656 -1.009258 -1.774197 -1.359257 1.847464 -0.113973 0.550042 -0.107739 -0.035843 1.058871 0.242766 0.156424 0.232248 1.522334 -0.343446 -0.151647 1.515070 -0.857812 1.822174 -0.068244 0.040434 0.653673 1.129828 0.576422 -0.605027 -2.119291 -1.835934 2.248787 -1.771053 -0.868232 1.855500 -1.595598 1.466160 0.726620 0.766836 0.409718 0.814800 1.464976 -0.662109 1.320613 0.727387 0.562351 -0.698857 -3.244600 -0.327418 -2.819456 1.438479 -1.327787 1.742939
机 -0.253417 -1.857095 0.876923 2.059395 1.826452 -1.409291 0.164861 -0.058409 -1.800600 1.354100 0.014575 -1.489322 -0.057731 -1.744985 0.757386 0.334769 1.205755 1.091224 -1.450380 0.915047 -0.109410 0.042401 0.457522 -1.103697 0.516353 0.172253 0.643335 -0.512912 1.036014 -1.779457 -0.295874 -3.236973 0.102354 -0.252675 0.562322 -0.548680 -1.577515 -0.295103 -1.667537 1.718107 0.215361 -0.971239 -1.642513 -1.487970 1.147828 -0.855521 -2.511930 -1.865555 -1.555483 0.464904 -0.234008 -0.405262 -1.091331 -1.137995 1.733590 1.117684 2.587861 1.952709 -1.494717 -1.840610 -0.337504 -1.522369 0.980140 -0.742223 0.479136 1.195562 1.460808 -1.074486 1.756014 -2.609461 2.430507 -1.673921 -0.178102 -0.355682 -1.517568 0.441647 -0.312437 -0.533776 -0.605943 1.837925 -1.866700 0.437974 2.640988 -1.115697 -0.362910 0.429312 -0.891631 0.047900 3.300033 -0.964511 0.783208 0.534291 -0.284705 2.056264 -0.984153 1.719261 -0.612427 1.644084 -0.427885 2.976681
月 -1.319545 0.887998 0.077928 -0.299407 -0.653580 1.905118 -0.522690 0.890887 0.686844 1.468535 -1.858723 -1.655485 0.020545 0.588473 0.297280 1.321314 -0.197042 1.571445 -0.849974 2.139028 -0.119903 2.534185 -0.424908 -0.770153 -0.240967 -2.876255 -0.781171 0.505029 -0.855569 1.096814 -1.332113 0.912137 -2.326750 -1.164183 -2.103451 0.536361 -0.761752 0.034817 -1.660172 -2.503698 0.750218 0.040655 1.368555 -0.699226 -0.733523 0.618284 -0.978420 0.324424 -1.995825 -1.995301 1.030979 -1.714669 -2.224387 -0.578898 -1.519497 -0.024878 -1.120659 -1.773445 -1.577175 -0.698128 -0.500062 1.479324 -1.936806 -1.117624 -1.861747 1.207839 0.371695 -0.481435 0.882230 -2.833522 0.476180 1.411371 -2.358301 0.695040 1.340129 -2.075680 2.414358 -2.287577 -1.117881 0.503065 -3.484808 1.001888 -1.502981 1.021866 1.071648 0.085771 -3.107550 -0.342452 -0.233582 -1.031001 1.229981 -1.119143 2.565777 -0.473671 -0.001885 -2.080458 -1.038447 -0.561638 -2.261163 0.327022
会 -0.513946 -0.665649 -0.961310 0.225043 -1.995349 -1.271429 -1.063015 -1.488767 0.969307 0.707476 -1.091215 1.328631 -0.753019 0.308694 1.648553 0.261028 -0.589597 0.691763 -1.796610 -1.427358 0.272428 -0.682441 0.193545 0.768901 -0.162658 -0.376536 -0.216088 -0.824258 0.214838 0.866736 0.157732 -0.898683 0.177230 0.704193 0.487174 2.218989 -0.792316 -0.473589 -0.263305 0.274304 -0.563694 1.342063 0.039583 -0.389964 -0.026835 0.227663 -0.245827 1.179862 1.688111 2.040279 0.389570 0.511803 -0.328562 1.411824 0.480111 0.128328 0.652030 -0.123709 0.794521 1.510548 1.074314 -0.139247 -1.543210 0.217097 -0.284416 -0.000040 -0.487077 -0.680003 -0.734072 0.561548 -1.118998 0.286956 0.533224 0.304793 -0.841343 -0.030561 0.950291 1.046482 -0.644877 -0.430791 0.377043 -0.541494 -0.390431 -0.867385 0.175245 1.149970 -0.914133 -1.308082 -0.220914 1.516484 1.049299 0.558469 -1.477966 -0.314957 0.008949 0.438159 0.157007 -1.240366 0.221347 -1.361624
扣 -0.636656 -0.172195 -0.847378 -0.209654 -1.384310 -1.089961 -1.982413 -0.335794 0.778796 -1.093794 0.985504 -0.023265 -0.504799 0.778866 2.339502 -0.770687 1.801912 -0.838905 0.563759 -0.287319 -0.227166 0.317845 0.225285 1.262086 0.775043 -0.946997 -0.065251 0.267246 -0.038086 0.843681 -0.803233 0.083918 0.735852 -0.276642 -1.121557 1.020236 -2.004373 -0.706892 -0.161403 -1.683937 0.813885 2.001419 -1.580293 2.259787 0.105160 -0.905792 1.358282 0.972364 -1.980423 1.747556 -2.010656 1.074633 -1.385841 -0.368454 2.170470 0.098977 -2.353943 -0.880669 -1.665142 2.479528 0.829217 0.034752 -0.620650 1.515050 0.567911 0.098394 -1.150003 0.302927 0.014654 0.423662 1.773842 -2.483274 0.010776 -2.841264 1.622853 -2.241374 -0.835570 -0.078695 0.884116 1.530075 -0.787361 0.765357 -0.834217 -0.582711 0.796328 -1.094238 0.233386 -1.570118 1.253140 -0.197888 0.504343 -0.676156 -0.461510 1.189238 0.527090 -0.796942 -1.091040 0.611580 -0.590611 -0.934054
码 -2.196411 0.546008 -1.017382 0.453277 1.533234 1.539616 -1.226563 0.143629 -0.818429 1.792315 -0.738025 -0.690566 0.724271 -1.756340 1.433954 1.135877 -0.869684 -1.267907 -2.357371 -0.956914 -0.504673 -0.779088 1.566656 0.265560 -0.495285 0.176629 2.350632 -0.497378 -0.337096 -0.387214 3.523636 -1.738898 0.626929 2.131800 3.602617 2.122313 -0.476268 0.187826 -0.969617 -0.278533 -2.155037 -2.584056 0.267826 -0.990469 0.641288 -0.700406 0.332720 -2.177333 -1.136037 -0.161629 -1.537885 0.898579 2.510713 -0.740978 1.698880 -0.907024 1.407583 2.560344 -3.363811 -2.502611 -0.166102 0.917342 1.570527 0.417580 1.372460 -0.531843 2.721683 -0.170776 -0.711749 0.075423 1.256417 0.553674 0.740796 0.207057 0.548717 -0.268798 2.167975 -1.471498 -1.032486 1.128567 -2.069381 -0.405582 2.180354 0.788918 -1.641339 1.525445 -1.980833 0.092721 3.291188 -0.625270 -0.728490 0.038095 1.131191 -0.369633 1.024973 2.489229 -2.177670 -0.585811 1.764449 0.172482
取 0.506696 1.015819 2.281169 1.284945 0.567011 1.550461 1.553365 0.335350 -0.772940 -0.968011 2.277041 2.001952 -0.592483 1.136219 -0.465567 -1.336379 1.484393 -1.903202 1.146734 0.123286 -0.787931 0.847058 0.441794 -0.709913 -0.713719 -1.893825 -0.384379 -1.904350 0.137161 -0.698164 -1.412447 1.146167 1.039887 0.065982 1.492004 0.643912 -0.248919 1.231533 0.292149 0.790869 -0.861229 -1.006661 0.796259 0.764734 0.263169 -0.772729 -1.559228 0.344451 2.281498 0.215695 -1.104028 -0.557969 -0.391257 -0.302454 1.527458 -0.991058 -0.360053 -0.635945 -1.194252 -0.682370 0.241267 0.251320 0.886010 -1.111321 1.448496 1.764061 0.212494 -0.055891 0.874376 0.984308 -0.262162 -1.424581 0.922285 -1.943872 -1.762863 1.469812 1.713867 -1.868734 -0.461469 1.068791 -1.395748 2.079168 1.075470 0.048074 -1.240819 0.942086 0.408904 1.360928 1.142523 -1.875273 -0.659006 -2.116866 0.726348 -2.283588 -0.374512 -1.184485 -0.418703 -0.765638 0.973413 1.299484
清 0.461913 -0.891709 -1.710100 0.760174 2.977450 0.480667 1.960174 2.336759 -1.351067 1.092210 0.322868 -0.097876 0.328104 4.234127 2.129721 1.099071 0.829579 -0.464882 -1.038496 0.678401 0.016289 0.177798 -1.483425 -2.471927 -1.055286 -0.642135 0.576648 1.933553 -0.539529 0.203683 0.446296 0.174294 -0.386447 1.531790 -0.098584 1.189256 0.466038 -1.761038 -1.309092 -1.939414 -1.024427 -1.830777 0.865274 0.759077 0.654783 -1.364878 -0.545541 2.870682 0.300464 1.321156 0.294980 -1.421475 -1.496137 -0.740375 -1.762875 1.507192 -2.540911 -2.261335 -0.880481 -0.418039 0.517707 1.956291 -2.089216 1.073931 2.072929 0.508081 -0.411818 1.685823 2.241207 -1.527348 -0.997865 0.161960 -0.315057 1.171982 1.089859 -1.421641 0.858644 1.023621 -0.096218 -0.360769 -0.087153 -1.042481 1.384640 1.849016 0.053180 0.752266 -1.879571 -1.849272 0.482936 0.052549 0.134541 -0.911890 3.657058 -2.075936 -1.509042 -1.188926 0.968242 -0.049735 -0.333494 -0.888241
次 -1.772754 -0.968861 -0.583795 -0.104321 0.283508 0.321805 0.624742 0.330694 -0.777727 -1.063524 -0.768174 -0.359425 -2.547508 -0.669985 0.086923 3.692090 -0.465740 1.162922 -0.156929 0.892609 1.622689 0.348082 1.596592 -0.933470 0.647121 0.920714 -1.330117 -0.347692 -0.427044 0.266821 0.586023 -1.619412 -0.232196 0.824781 -1.193338 1.869298 1.579376 -0.278237 -1.065395 -2.589530 0.556708 -0.266965 0.758602 -1.989028 1.553732 0.392768 0.775603 0.877025 -1.948367 1.709067 -1.017109 -0.286455 -1.407622 0.896447 -0.470630 0.507485 -0.657167 -1.661147 0.735085 1.539811 -1.110205 1.129421 -0.187658 -0.507728 -1.309261 0.281491 -0.099707 -0.759303 -0.629230 -0.705293 -0.028547 0.491390 -0.050268 0.598389 -1.017515 0.579626 0.175682 0.424125 -0.782279 -0.011364 -1.241470 2.287930 -1.130929 -0.890241 0.053819 2.990986 -0.884320 0.006798 -2.334264 0.036749 0.990288 2.188854 -0.279614 -3.840498 -2.139662 -1.042783 0.081311 -2.402495 -1.538960 -2.419053
候 1.341559 -0.458170 0.295811 1.658199 -0.445415 -1.050681 1.743719 -0.858370 1.183647 1.135253 0.649979 -1.019225 0.398727 0.012573 -1.914058 0.588519 -1.017896 -1.255320 0.364662 0.554365 0.554665 -0.248186 2.350122 2.068720 -2.327602 0.485005 1.209467 1.006590 1.146138 -3.027200 -1.843999 0.010332 1.694564 2.843499 -1.518927 2.151253 1.861307 -1.658443 -0.345411 -0.463204 -2.829278 -0.233600 -1.522822 -0.739706 -1.188596 0.520216 0.902031 0.595333 0.498354 2.320703 1.086446 -0.053851 -0.645190 -2.167900 0.252893 1.166411 1.726228 -1.732316 1.076956 0.287407 1.079329 -3.023906 -1.046171 -1.166631 2.801571 -1.424486 1.398027 1.354383 -0.029208 1.205338 0.454799 0.986361 2.403835 -0.060085 1.008969 -0.851180 -1.713660 0.965622 -1.708909 1.195759 -0.538900 -0.921939 -1.678631 -1.731390 0.484148 2.853754 -2.449259 1.480683 1.320343 0.128140 0.912632 -0.702629 -0.267159 -3.784997 -1.248109 0.463137 -0.116856 -0.551858 1.475736 -0.868795
消 0.743400 1.001874 0.195780 -0.899107 3.477139 1.494274 0.235791 2.621244 0.880197 -0.151595 -0.333071 0.046911 0.629312 0.862943 -0.007394 -1.238990 0.973957 0.302012 -0.727136 1.259562 -0.015014 0.161981 1.167858 1.466416 0.577627 2.960808 1.884854 0.003074 -0.890906 0.649249 2.686504 2.729063 -0.372201 0.193173 -1.246207 0.179825 -0.901104 -0.595199 -1.822095 -2.865511 1.300704 2.053918 -0.010484 -0.277830 -0.562145 -1.916573 0.390576 -0.273554 -0.345314 -0.217079 -1.690403 1.479846 0.532404 -0.941413 -0.128602 -0.945737 0.648103 1.041787 1.558741 2.159973 -0.574546 -1.714203 0.714233 1.154968 2.289140 1.363929 -0.082243 -0.796077 -1.405762 0.185789 0.087759 0.094250 1.881045 -1.129876 -0.401546 1.286748 -1.489871 -1.083980 -0.581418 -2.258199 -1.348957 0.188497 -0.782455 -0.263505 0.535971 -0.318910 -0.018573 -0.278088 -0.166733 0.376641 -0.449295 -1.258998 -0.693328 -1.140007 -0.316472 0.390259 1.152877 1.331619 -0.787833 1.340688
上 -0.177311 -0.635734 -1.061510 0.796879 -0.731385 -0.783523 -1.908378 1.439421 -1.707413 1.598644 -0.581929 -0.880581 -0.813669 0.701436 0.377030 -1.659591 0.625021 -0.722172 -0.384055 0.743520 -0.083552 0.070990 0.458846 0.249314 2.397641 0.858263 -0.872843 -1.326003 0.812088 1.343254 -0.519470 -2.492053 0.386067 1.276199 -0.855234 -0.981639 -0.665290 0.263954 2.364965 -0.562816 0.859319 0.382748 0.282244 2.575818 1.167904 -1.229793 0.141445 1.036446 -1.165830 0.168508 -0.985179 -1.343252 1.034676 -1.331506 0.073996 -1.221410 -0.405444 0.933328 1.785161 -0.635314 0.948136 -0.258282 -0.399867 -0.150890 2.070510 0.075796 0.272247 1.562067 -0.669306 0.602165 -0.407380 -0.597538 0.239512 2.054332 -0.152011 -0.449041 -0.913518 0.844116 -0.042534 0.570798 1.091418 -1.310847 -1.802320 -0.766580 0.701940 0.043116 0.485983 -1.213655 0.173532 -0.222142 0.816871 -0.370796 1.213702 0.724753 -0.692679 0.995336 -1.853391 -1.507401 -0.586360 0.415961
打 -0.228472 -1.253702 -1.181132 1.079464 0.852760 -0.228867 0.531617 -0.829410 -0.787799 0.328518 1.238673 0.070106 0.114312 -0.266196 -0.409326 0.131200 -1.206157 -2.629679 -1.488298 -1.754566 1.094376 -1.808044 -0.797567 1.805244 -0.508168 0.308601 -1.454800 1.317577 -0.665362 0.265017 0.147474 1.119338 2.768659 2.001743 0.521909 2.165101 -0.057986 -0.467055 -1.806061 -0.127315 -1.873834 1.204543 0.110074 0.090142 -1.339111 -1.589226 0.386797 0.938410 -2.173156 3.350273 -1.075115 0.359586 -0.484607 -0.036102 0.148925 -1.927464 0.062440 -1.706345 -1.364475 2.286010 -0.115580 -0.893250 0.878717 1.662665 2.355381 -0.797969 -0.790678 -1.428680 1.066790 1.589262 -0.546391 -0.479865 -0.974619 -1.029901 -0.448454 0.302736 1.050501 -0.165872 0.134375 -1.800451 -0.337687 0.865488 2.032830 -0.796849 -1.303825 -0.505465 -0.390250 -0.609661 1.459798 2.106747 0.207212 1.135295 -0.327535 -1.294347 0.715767 -0.540742 -1.745802 -0.689892 0.174070 -0.730741
示 -1.346114 -3.799614 0.130340 -0.273149 -1.741182 -0.596745 -0.241498 -0.524932 0.148595 -2.154815 -0.625101 -0.924306 1.217200 1.532499 -0.137675 -2.445777 0.145080 -1.312849 0.238138 -1.034038 1.226576 0.255647 -0.993537 1.453543 -0.816122 0.294751 -1.491372 -0.417727 -2.489472 -0.343791 -1.665518 -1.910485 0.373904 2.605763 1.943216 0.036273 -0.257586 -0.372217 -0.962863 -0.623704 3.594178 -1.891806 -0.615549 1.369280 1.954925 2.126437 -0.309092 3.757307 -1.643443 -2.540000 -1.688852 2.052214 2.792263 1.007444 -1.048432 1.541232 -0.099588 -1.547610 0.310584 -0.765886 2.359404 -0.396461 -0.593721 -1.087822 2.125429 0.872199 1.289423 -0.492102 0.042894 -0.714832 0.482876 2.720041 -1.369704 1.126688 -0.926608 -0.100692 -0.444785 -1.525281 0.916498 -0.014791 0.322592 -2.119634 1.771033 0.200834 2.023628 2.579740 -1.432809 -0.342994 -0.740154 -2.219688 -0.844374 -0.151796 -0.869189 1.934033 -1.519479 2.702108 0.074848 -0.486063 -1.602653 -0.162372
失 0.744589 -0.477766 -0.594495 -0.192912 -0.494135 -2.456761 -2.190488 -0.268030 3.222678 -4.141443 2.061504 2.195226 -0.510732 1.478294 -1.083245 -0.514267 -2.637364 -1.998966 0.843212 1.423529 -0.420305 0.158632 1.960836 -2.587148 0.041000 -0.292301 -2.410744 -2.131319 -1.335225 -1.779450 -3.264615 -1.355065 0.622458 -0.311946 -0.254358 -0.412233 -2.147618 1.070565 0.401334 2.721441 -0.570239 -0.318316 2.011953 2.423718 -0.334626 -0.505027 0.149194 3.294199 1.789741 2.328267 -2.764566 1.198327 -0.572599 -1.002091 1.781620 2.472811 0.199763 1.563670 -0.689255 0.269570 0.154208 2.352706 0.668042 0.186099 0.167311 -0.281872 0.486187 0.920144 0.381584 0.279280 0.757108 -0.602940 -0.738030 -0.347636 2.144364 0.257584 2.342261 1.355732 0.944272 0.594561 -1.030438 -0.705428 -0.323092 -0.482588 0.705637 0.203324 -1.896044 -1.430187 0.506623 -1.303415 -1.871041 -0.936342 -0.377416 0.024865 -1.169285 0.927971 -0.466770 -0.642130 -0.848461 -1.192903
日 -0.652554 2.333258 -0.288498 0.786888 -0.869698 0.256656 -0.269461 0.858567 1.417862 0.623578 -1.721742 0.063859 -0.523482 2.436556 1.554882 -0.113445 -0.406072 -1.336403 0.218184 0.661587 0.421771 1.980727 0.214136 0.234565 0.514164 0.528376 0.791466 -0.684922 -1.094682 1.094643 -1.009138 0.651475 -1.151616 -0.872131 -1.330651 -0.290097 1.418994 0.586769 -0.008417 -0.799748 1.906093 0.998681 -1.274408 1.582829 2.116965 0.703025 1.371818 0.908124 -1.579591 0.947825 1.783233 0.852065 -0.999409 -0.824724 0.341050 -0.191820 -2.046523 -1.295854 -1.779752 -0.817818 2.438641 1.137146 -0.405987 0.408303 -2.110765 1.020602 -1.013452 0.240559 0.735892 -0.775360 1.239624 -0.242311 -0.025331 -0.967865 2.844711 0.076112 0.785661 -1.259545 -0.951182 1.298969 -1.559878 0.934713 -1.529891 -0.332418 0.198393 -0.188982 -0.885541 -0.199898 0.807650 -0.877202 0.873890 0.139722 1.117092 0.658006 -0.674049 -0.670519 0.658988 -0.706114 -0.390965 0.519896
来 -0.477052 -0.423805 -1.191665 -1.219493 0.082619 0.543668 -0.310572 -0.901715 -0.937749 2.308529 0.956916 1.216837 1.326207 -0.333242 1.186325 1.138353 1.241617 1.658597 -2.855181 -1.784549 1.042134 0.349519 0.784281 -0.504838 1.365314 0.248855 0.006315 -0.242360 -0.383519 0.063289 -1.004036 -0.434475 2.195163 3.213005 0.435415 1.084688 0.041109 -0.170223 1.442252 -0.149976 0.204234 1.080824 0.782175 -1.248718 -0.505978 -0.017069 -0.672142 0.404959 -1.013525 1.299667 -1.208976 0.750235 0.815384 -0.614821 -0.330359 -0.899434 0.068690 -1.679148 0.432696 1.496495 0.865597 -0.416059 1.863514 1.381813 1.462030 0.379718 0.274631 0.201213 0.456945 -0.543490 -0.045374 3.183265 0.188968 0.127425 -0.980221 -0.854326 0.254651 1.724733 0.211417 -0.151593 -0.533090 2.397528 0.484463 1.498201 0.070151 3.131086 -0.666874 -0.603349 0.204282 0.274003 -0.527006 0.811659 -1.898566 -0.830769 2.132696 0.413472 -1.471456 -1.160558 -1.739657 1.035423
下 0.180796 0.957582 0.901404 0.675482 -1.923480 -0.741220 0.089769 0.661662 -1.895986 2.497725 0.639117 0.013031 -0.813346 0.970645 0.419705 -1.015820 -0.393781 -0.606682 -0.035239 0.474230 1.487610 -0.885635 0.300777 2.546293 -0.817406 -0.938299 0.769153 0.517314 -0.401315 1.693863 -0.158464 -0.185798 -1.146642 -0.112913 0.569526 -0.954024 0.313099 -0.655176 -1.145540 -0.756377 0.990430 -1.310497 0.063824 1.017661 0.651157 -0.334900 0.238277 0.089245 -1.294477 0.822641 -2.092816 -1.660195 -3.256469 -2.082132 1.172854 -2.496560 -0.960708 0.055869 0.795847 0.809172 -0.751547 -0.123636 -0.467153 -0.739137 0.023131 -0.563999 -0.386578 3.234578 0.307004 -0.384135 -1.244405 -0.832140 0.526802 1.632016 -0.137973 -0.366647 0.028530 -0.456896 1.141461 -0.666142 1.270214 -1.406236 0.263954 -0.717303 -1.515595 -2.319877 -0.092591 -0.868505 1.206646 -1.184522 0.229551 0.944115 -0.368255 -0.658394 -1.679823 -1.354367 0.530132 -1.782468 -0.866972 -0.558501
久 2.242187 1.281834 0.473889 0.450186 -0.650200 -0.243573 0.006743 -1.638541 0.903915 0.642402 -0.592614 -1.217408 -0.378432 -0.153661 -0.687014 1.763300 -1.152792 0.360795 -0.696113 2.617761 1.496088 0.214247 0.641437 0.672123 -1.844540 1.629599 0.638335 1.092967 -3.286452 0.970697 1.195525 -1.370006 -0.752827 2.431687 0.393199 0.852632 0.269067 0.786213 -1.360640 -0.270359 -0.107069 -3.993805 0.813814 -2.080516 -1.042933 -0.925279 1.001088 2.358606 2.158211 4.252793 1.350369 -0.401375 -0.675081 -1.142454 1.301732 -1.704943 -2.309259 -1.668999 -2.256912 -1.256461 0.670335 -2.550614 0.067872 -2.418072 2.635849 2.080587 1.281719 -0.936442 1.463460 2.335133 -1.572774 0.277620 -0.365512 0.461280 -2.332188 2.039466 0.134291 -1.601494 0.676043 2.065150 0.866077 1.609635 -0.096170 1.861443 -0.622247 3.803208 0.008972 -0.228769 -1.927927 1.083605 2.042083 1.033846 -3.104990 -3.671441 0.438841 -1.035157 1.757074 -0.430573 2.743410 -0.749165
更 0.132698 1.379384 0.484598 1.734515 0.836126 2.016183 -0.850186 0.751355 0.766655 0.841478 -0.587816 1.995116 1.470444 -1.441123 0.327711 -0.504834 0.834247 -1.575353 -1.534941 -0.462269 1.189027 0.742390 -0.634297 1.151423 -1.499752 0.302851 0.404376 -1.965717 -1.926515 -2.492261 1.559736 0.449393 -1.210892 -1.304999 -0.922212 -1.508338 0.378172 -1.214689 0.696397 -0.748916 0.649263 -1.508948 0.309476 -1.843170 1.581224 -1.213121 1.707306 -1.088395 -0.870664 0.729265 0.147443 2.739942 0.543180 -1.202096 2.120460 1.110011 1.434289 2.545625 -0.141947 -0.544967 -2.386173 0.252493 -1.335427 2.262550 0.274188 -0.029239 0.219784 2.759292 1.041421 0.996322 -0.072108 -1.267677 -0.301329 0.062802 -1.221797 0.628989 -1.356553 -0.418923 -1.381642 1.251927 -1.517616 2.915159 1.924882 0.432556 0.024654 -0.034333 -2.623305 -0.397681 0.992891 -0.026021 0.781553 0.130813 -0.248721 -0.188844 -1.016464 -1.819577 0.312326 -0.884256 1.904583 -0.281348
改 -2.170195 0.957879 0.555745 1.817886 -0.077228 1.163052 0.184460 0.663746 1.658718 -0.823874 -0.656839 2.160373 0.380309 -1.591584 1.360774 -0.493650 1.381464 -2.195797 -2.143652 -1.642587 0.146771 2.049140 -2.512358 0.403748 1.231487 -0.308799 1.485993 -1.354274 -1.330019 -2.140869 0.830345 0.206166 1.071298 -0.629472 -0.629756 2.175492 0.938337 0.569943 0.955873 0.491655 0.273316 -2.397540 1.057085 -0.815374 -2.447717 -1.704192 2.236749 -2.248368 1.025577 1.539774 -1.272654 -2.750616 -1.596956 -1.959039 1.667289 -0.587777 -0.669397 0.403133 -1.409878 -2.330714 -0.137553 -0.599861 -0.682830 2.234899 1.824826 0.075422 2.493062 0.838928 -1.054120 -3.108639 -0.041183 0.273125 -1.047215 -0.438468 1.194009 2.551373 -0.868015 -0.768032 -1.435241 0.589488 0.895067 1.038340 -1.052960 -1.224982 -0.961092 -0.270302 -0.665363 -0.066811 -2.092897 -1.808551 -2.001949 -1.003011 1.716157 -1.137295 -0.724030 -0.476536 -3.256294 -0.541878 -0.882731 2.066621
问 -2.484735 -0.449921 1.342413 -0.641138 1.957250 0.002559 0.776499 0.105696 -0.544886 0.839448 1.014677 0.284489 0.206419 0.267914 2.480097 1.513953 -1.786852 1.620331 1.240418 -0.075003 -2.155288 1.839462 -0.968165 -1.359918 -0.355534 -1.204085 0.777058 -0.160300 -0.213466 0.860079 -0.979590 2.601490 0.281683 -0.238928 -1.541683 0.402343 -0.749206 -0.804910 0.796727 -1.847631 1.281458 -1.254820 0.430416 -0.245121 0.528062 0.456476 0.626558 0.049085 0.577782 -2.673396 -0.568431 -0.262361 -1.001192 0.983432 -0.189609 -0.096745 -1.320073 -0.697164 -1.782082 1.111873 0.591274 -1.506207 0.629428 0.506707 -0.051338 -0.343529 1.376189 1.402292 0.690031 -0.125425 -0.573067 -0.151704 -0.960887 1.566503 0.975091 0.997499 -1.019889 2.139340 0.421370 0.744310 -2.738029 2.950781 -0.330595 -2.390059 -0.852703 2.719718 -0.311217 -0.502420 -0.442026 -0.091751 0.474752 -0.294282 -1.022691 1.024082 -1.635560 -0.051880 -0.407243 0.902427 0.273914 0.729888
呢 -0.284290 -0.727421 0.503215 -0.980594 -0.157362 -0.768173 -0.253050 0.518595 0.078191 -0.435280 0.219873 0.174402 -0.871317 0.403234 -1.594365 0.456189 0.417238 0.595274 -0.275043 -0.643002 0.812050 -0.169494 -0.006464 -0.495091 0.280853 -0.068281 -0.432729 0.071242 -0.217375 -0.180953 0.036193 -0.412908 0.500201 0.815701 0.688478 0.449140 -0.098030 -0.269981 0.800023 0.052735 -0.765391 0.906679 0.744969 -0.738239 0.737081 -1.213222 -0.722025 0.723002 0.538878 0.287555 -0.912061 1.039363 0.177820 -0.200463 0.342332 -0.949945 0.688864 -0.512515 0.919526 -0.984246 -0.188785 -0.002818 0.165944 -0.079346 0.266367 -1.495887 0.070212 -1.100042 -0.487533 0.657912 -0.051758 -0.303128 -0.060541 0.100112 -0.347765 -0.734483 -0.513505 0.402075 0.678951 1.063817 0.348048 0.607169 -0.212911 0.191976 -0.349427 0.283889 0.539333 0.321954 -0.291429 -0.258434 -0.119433 1.132352 0.491501 0.969265 -0.069023 0.624395 0.168421 0.030057 -0.218096 -0.372594
想 -1.133468 -0.195887 -1.069393 -0.573691 -0.734264 1.888404 0.102482 0.017943 0.444158 1.799327 0.887228 0.655241 0.696706 1.173763 0.507418 0.230892 -0.875086 1.776871 0.135734 1.233575 2.832008 -0.256059 0.388788 0.134182 -1.876133 -0.216405 -0.611559 -0.652456 0.994148 -0.241963 -1.372505 0.436271 -1.241413 1.645290 0.530980 -0.378639 1.173925 -0.910618 -0.975478 -0.473979 2.146522 0.855295 0.320049 -0.873577 0.257721 -0.476227 -0.350020 -0.143812 -1.804340 -1.322247 0.076155 -0.057352 -3.258245 -1.054277 0.343336 0.474121 -1.725802 0.750327 0.818679 0.788557 -0.633265 -0.701309 -1.411481 0.346844 -1.273203 -1.069749 -1.034966 -0.588974 0.249762 -1.203837 0.859574 0.166445 -0.892566 3.372814 -0.186756 2.659754 1.131564 -0.008367 -0.386223 -0.446427 -0.404827 1.328830 0.780562 1.121445 -0.699845 1.080954 -0.332097 -1.974198 1.184372 -0.248650 -0.416620 -1.023317 -0.012849 -0.048857 -0.779196 -0.377747 0.493290 -1.805097 -0.137412 0.481524
败 -2.041538 -0.826039 1.394672 -1.585540 -0.156898 -0.145603 -2.679893 1.463856 0.247222 -1.247792 -2.696728 1.336182 0.519970 1.834628 1.057582 1.004855 1.730907 -0.842262 -1.227696 -0.229522 1.890418 -0.125643 0.510427 1.964463 -1.214855 2.553949 1.578356 -0.125629 0.049643 1.345285 1.052423 0.058038 -1.150115 -0.144485 -1.348332 -0.407824 -2.628338 -2.653667 -2.467235 -1.392722 -1.390955 3.033571 0.540571 1.727385 1.049722 0.980526 1.549159 0.035360 -1.159437 0.245563 -0.924294 3.244332 0.076202 -1.341265 -0.925919 0.080186 -0.981254 -0.386860 -1.450970 1.614445 0.710978 2.125100 0.611002 -3.089296 0.944023 1.394081 -0.744670 -0.718114 -0.187607 -1.333749 -1.905156 0.677770 1.049837 -0.217501 0.048370 0.990654 -4.158951 -0.994907 -0.856536 1.614804 1.456944 -2.083300 -0.230259 -1.549450 -1.384006 0.474004 -2.810488 -0.833430 -0.461009 -1.952059 0.167775 0.242358 -2.860993 -1.978574 0.889558 1.161538 -0.062756 1.696238 -1.003714 2.207142
2 -0.638169 -0.015988 -1.085894 -0.080959 0.194345 0.440582 -0.504736 1.039480 1.104207 0.559627 0.032681 0.408299 1.288050 0.808775 1.299273 -0.515964 0.558867 -3.010907 -0.360477 2.196445 -0.631747 1.571066 0.959708 -0.427612 2.096489 -1.860896 0.430828 0.913100 0.406421 0.914508 -1.008769 0.451838 -0.291465 -0.551197 -0.459166 -0.013572 -0.253277 -0.727208 0.057706 -2.110280 0.404779 1.041920 1.171404 -0.773497 -0.362188 0.929937 -1.225741 -0.891588 -1.228142 -0.622027 0.241277 0.462710 -1.308280 -1.038112 0.642500 0.620774 -0.472408 -0.195345 -0.015134 -0.725224 0.921160 -1.400889 -0.919117 -1.209522 -0.328162 -1.033942 0.213455 -0.396522 1.144850 0.929491 0.678224 1.120897 -0.392781 1.191312 1.778520 -0.140072 0.432820 -0.656833 0.325016 1.196357 -0.998191 -0.554590 0.568976 0.632475 -0.493707 -1.203415 -0.600617 0.033268 2.164151 -1.051852 1.126537 0.703985 1.410031 1.639084 -0.073781 -1.513391 -0.941009 -1.749958 0.087013 0.757219
账 0.665039 -0.580397 0.800413 -0.028448 -0.261055 -1.330550 -1.076594 -0.289993 -1.576324 -0.967806 -1.269510 -2.261405 0.406427 -0.675212 1.663941 -0.345818 0.615594 0.009244 1.387492 -1.309908 -0.386874 -1.710989 -0.388428 -0.022497 0.381824 0.679698 2.023657 -0.423600 -1.097892 1.214082 1.498612 1.650086 1.089315 -1.400075 -0.407482 2.210213 0.435136 1.710175 -0.237634 -1.404145 0.745400 -0.461136 -0.229075 -0.502224 1.548496 0.860135 -1.721658 0.136634 0.296840 -0.585567 0.475738 1.067529 0.196524 -0.890707 1.090724 0.078355 -1.771650 1.093785 0.358211 -0.261354 2.714469 -1.480619 2.122998 0.364371 0.109688 0.965734 -1.361559 0.473503 2.241466 0.395424 1.790934 -0.895308 -0.234588 -1.152681 -0.417758 -2.105418 1.115922 1.395413 -0.355814 1.698337 -1.650210 -1.141613 0.032191 0.702207 -1.460255 -1.678284 -0.037677 -0.949571 2.343995 -0.228713 0.765779 -0.112929 2.232386 -0.522450 1.008685 -0.431773 -1.119590 -1.374768 -0.903822 0.108344
未 -0.186698 -0.964718 1.008424 -0.789439 -1.683684 -2.709435 1.021575 -0.962374 1.326824 -0.903558 -0.890665 0.519824 0.417583 -0.816187 -3.069708 -0.687145 -1.698169 -0.641949 -0.924008 1.151199 0.534387 -2.624504 1.778542 0.368319 -2.174439 -0.231416 -0.715704 1.171489 -1.354406 -1.973540 -1.050332 -0.958764 2.175183 -0.732355 -0.767557 0.005459 -0.198735 -1.638244 1.988461 0.886259 0.309442 0.266966 1.746901 0.146147 -1.997159 -0.386446 0.662715 0.638713 0.782146 -1.331347 -1.301064 0.019355 -0.824343 -0.487184 -0.986875 1.535300 -1.788211 0.536607 1.044897 0.573898 0.569385 -0.384942 0.418665 -2.060484 -0.963246 0.704403 -0.458505 1.007704 -1.363325 1.454151 0.288780 0.405899 -0.948332 0.380661 2.166184 0.415867 -0.073635 -1.097039 0.581431 0.276173 1.475831 0.295827 0.462357 -1.369439 -2.035662 2.539271 0.162647 -0.245420 -2.331213 -1.064295 -1.504469 1.352818 0.825747 -1.214154 0.678102 1.012060 1.308992 -1.818512 0.647524 2.583590
定 -0.916011 -0.074739 3.280731 2.163129 -0.358779 0.148789 1.379425 0.303004 -1.850601 1.029899 -2.609990 2.266804 -0.745644 -1.067014 2.008388 0.366772 -0.814966 -2.819671 -1.691969 -0.317310 1.350930 -0.140109 -1.282832 1.089810 1.984173 2.549577 0.395741 0.656448 -0.084220 -2.614323 0.026490 0.974448 -1.849713 -1.679442 -1.727502 -1.663082 -2.499385 -0.716456 -0.147539 -0.122697 -1.164898 -0.604538 -1.043823 -0.449127 -1.259843 -0.593102 -1.249207 0.118323 -1.729307 1.210226 0.530253 -0.573483 -1.602516 2.000139 0.998238 2.062750 -0.159287 1.291027 -0.015348 -0.159824 0.531704 0.795149 2.364725 1.687383 1.361824 -1.244606 0.472763 1.486016 -0.707969 -0.176684 0.037298 -0.287743 0.682632 -1.228067 -0.145818 -0.740375 0.634097 -0.235299 0.541651 0.367229 -0.432465 1.663142 -1.275892 1.636225 1.036945 0.677696 2.399018 -0.039309 0.918732 -0.451822 0.825656 -1.302418 -1.777500 -1.740727 -0.397782 -0.739407 -5.437624 -2.066516 0.514700 -0.930187
这 -1.230684 2.082522 0.487476 -0.748976 2.418210 1.206726 -0.997724 2.400136 0.454134 1.708354 -1.356606 0.308960 0.371252 0.095859 -0.069664 -1.601992 0.393448 0.603536 -0.919761 0.477446 0.342899 -0.274158 -2.663131 -0.433999 -0.160257 -2.324863 -2.110898 0.643315 0.363238 -0.611964 -1.184891 0.683192 0.123830 -0.162032 -0.143826 0.779018 -1.903672 0.206056 -0.551771 -0.445512 -0.043927 0.849999 0.161189 -0.015254 -0.886525 -1.870214 -1.546014 0.498915 0.443785 -0.486339 0.225853 -1.135553 -0.790396 -0.926289 -1.101248 -0.821768 0.845812 -0.230185 0.441797 -1.048411 2.295392 -0.160582 0.619794 -1.170704 0.417878 0.649964 -0.069025 0.601693 1.099131 0.391345 0.734817 -0.604645 -0.324841 0.092674 1.255330 -2.147999 1.288958 0.794393 -0.098379 0.050554 -1.079690 0.165012 0.370153 -0.475696 -0.884921 -2.092349 0.319255 0.851879 2.571441 -1.080270 0.624696 -1.875443 0.274426 0.697719 0.724394 1.589744 2.055284 1.056104 -0.688887 -0.922857
才 1.489784 1.909047 1.211480 0.874266 1.248030 -1.318001 0.971448 -0.933968 1.660795 0.384194 -1.207189 0.410192 -0.222151 -2.682951 -1.424069 1.574361 1.490480 -0.953753 0.839177 0.459460 1.172067 0.399289 -3.177251 0.308596 -0.451057 -0.498473 -0.571265 -0.551019 0.603122 -0.129426 -0.332438 -0.687135 -0.599896 1.512951 0.770362 1.565231 0.487504 -1.366688 1.044524 0.698476 0.024659 0.225365 -0.360144 -0.659194 0.172140 -1.492027 1.459494 0.488505 -0.034754 -0.893205 -1.258457 -1.098418 -0.215144 -0.789683 -0.247432 -1.950381 -0.159061 -1.306692 0.328804 1.507609 -0.341705 -1.730908 -0.420583 -1.149150 1.887267 -0.293773 -0.297813 1.224937 1.233154 2.078119 0.293544 -0.357647 1.260890 -0.737284 0.653964 1.485702 -1.332991 1.311159 0.883378 0.141319 -0.635289 1.810281 1.403902 1.168788 -0.197635 0.064462 1.458475 1.017010 -1.607565 -0.898776 0.007141 0.930899 -0.611112 -1.187552 1.256412 0.421150 0.504711 -2.138150 0.723436 -0.232285
入 -0.983310 -0.271628 0.662789 -0.412864 3.052852 1.255778 -2.427454 0.461464 -0.774580 1.018685 -0.504832 -1.622056 0.699007 -1.147568 0.540406 -1.883998 -1.764829 0.298138 -0.825459 0.595010 0.737400 -0.627027 2.071584 -1.027237 0.807186 1.232309 -1.162575 0.064006 -2.149642 0.979228 0.452982 -1.032315 -1.543838 1.193775 2.747249 -0.401225 -0.211009 -0.711985 0.294726 2.309454 -0.578099 -1.291194 1.021256 -0.095909 2.121527 -0.980984 2.630181 -1.681722 0.778749 -1.146987 0.925027 -1.145731 1.312054 2.022326 1.488850 -0.636968 0.740349 -0.717820 0.570710 -2.234767 -1.008318 1.387569 1.039227 -1.748673 0.048142 1.833732 -2.696404 -1.092925 0.090817 1.177498 0.500612 -1.040724 1.334158 -1.014323 0.774200 -1.019927 -0.507620 -0.305928 0.862427 -0.400056 -1.699453 -1.043813 -0.669684 -0.848382 0.551189 2.977184 -2.022950 -0.781475 -0.469516 -1.563033 -3.692374 -2.140372 0.296935 -1.446105 2.510247 2.111763 -0.486841 -1.496007 0.196432 -1.525830
换 -2.491375 1.088519 0.754821 0.998916 0.849471 0.627159 -0.155477 -0.270308 0.262175 0.960080 0.118258 2.416195 1.705882 -0.034073 0.741231 -1.010173 0.655798 -1.328329 -2.157986 0.279966 0.223541 1.510469 -2.536020 0.514072 0.808816 -0.181471 0.897146 -0.460365 -0.104204 -1.167567 0.069957 -0.581785 -0.633196 0.731114 -0.090788 0.226931 -1.238816 -0.541893 -0.018258 0.306167 0.694760 -0.440211 1.803254 1.125993 -0.517300 -2.121788 1.188591 -1.339660 -0.750453 -0.583572 -1.540917 -2.208037 -1.525533 -1.711720 1.868573 -0.152423 0.454983 0.843977 -0.848546 -0.616650 -0.435812 -1.814705 -0.946927 1.366310 2.816214 -0.377680 2.361499 1.365884 0.165749 -1.527599 0.559151 0.518140 -1.896894 -0.798482 0.962073 2.505490 -0.325336 -1.358398 -0.868430 0.830184 -0.348452 1.355056 -0.354665 0.035129 -1.058806 -1.591013 -0.576239 -0.075566 -0.915022 -2.245908 -2.043557 -2.489478 0.035963 0.516078 -1.777925 -1.527267 -3.227723 -0.326529 -0.977894 2.506931
啊 -0.734814 -0.102856 0.235482 -1.234546 -0.108357 -2.218382 -0.798397 0.099978 -0.828804 0.184792 0.302275 0.520560 0.199044 0.034479 -0.830238 -0.580613 0.267844 0.912179 0.266475 -1.333519 0.777990 -0.088432 -0.882665 0.313933 -0.419808 -0.627082 -1.148501 0.087432 0.106012 -0.170577 0.089192 0.126734 -0.437659 0.322556 0.714740 1.294542 -0.574224 -0.283985 -0.216298 0.139071 -0.782252 1.930866 0.651444 -0.968083 0.512121 0.180344 -0.508496 0.334062 0.300777 0.854937 0.035339 0.323473 0.169400 0.052494 -0.173985 -1.139817 0.655210 -1.674326 1.236615 -0.395834 0.035754 -0.350063 -0.286834 -0.303171 0.857645 -0.734934 -0.329731 -1.197218 0.350057 0.841769 0.447225 0.097850 -0.508826 -0.682825 -0.215171 -0.689686 -0.213381 0.340628 0.770101 -0.327088 0.372141 1.169082 0.168393 -1.097877 -0.083895 0.365713 0.645412 -0.198680 -0.500652 -0.289524 -0.728565 -0.226437 0.461462 -0.340500 0.257857 0.583220 0.876458 0.716706 -0.338608 -1.134280
接 0.430921 -0.596072 0.551387 1.600148 1.313314 0.181967 1.186669 -1.661823 -0.461612 0.541840 -0.401082 0.265075 -0.365811 -0.883826 0.707057 0.221778 0.808280 -1.049223 -2.486871 -2.390174 1.009462 -1.209610 -0.866246 0.306497 0.577728 -1.093270 0.321064 1.760983 -2.414491 0.648723 0.655227 0.209685 1.814513 2.604620 0.096345 2.526619 1.159647 2.084751 -0.559648 -1.182046 -0.148202 0.566296 -0.295927 0.212342 0.475356 -0.558276 -2.286525 0.821715 -0.511282 3.223363 -2.417487 1.438538 2.896905 -0.062975 -0.004667 -1.501556 -1.655344 0.133874 -0.461708 1.564156 1.532126 -1.768993 2.746430 1.959546 2.068166 -1.125986 -1.494216 1.039620 1.259895 2.319690 2.655677 0.433692 -1.419497 0.287762 -0.054579 -1.358326 0.081126 0.940558 0.524311 0.513221 -1.405548 1.134960 2.524599 -1.256937 -3.783925 0.894362 -0.322782 -0.705547 1.449495 0.819675 -1.436071 0.555258 -0.475286 -0.406002 1.462277 -0.338257 -1.537732 0.800680 -0.067708 -1.224345
。 1.001247 0.876637 -0.271233 0.522073 -1.105278 0.657579 -0.529951 -0.090268 -0.174486 0.563775 -0.266027 0.290352 0.101949 0.163651 1.009483 1.241643 -0.403590 0.420391 0.531503 0.765619 0.604093 0.475323 0.731589 -0.848324 0.824370 0.893874 -0.546647 -0.136289 0.377063 0.528695 -0.722917 0.001244 0.939734 0.441494 0.034734 -0.286276 0.126474 0.271796 -0.531638 -1.158965 0.782886 1.343109 -0.576006 0.365361 -0.582572 -0.852426 -0.549846 -0.442779 -0.344379 0.532988 -0.596761 -0.191982 -0.434217 -1.372792 0.404472 -0.472056 0.445078 0.313297 0.012304 0.725368 -1.180928 0.744895 -0.879838 -0.079852 1.212357 0.020058 -0.479821 -0.305688 -0.203744 1.335059 -0.701340 0.447110 1.641840 0.639699 -0.535815 -0.461946 -0.209247 0.524861 0.474745 0.449262 -0.994193 0.207701 1.135785 -0.414995 -0.746567 -0.266825 0.600511 1.559961 -0.059818 0.682628 0.062795 0.611667 0.707667 0.534677 -1.018247 -0.703721 -1.883021 -0.391814 -0.805995 0.110055
里 2.110184 -1.920840 -1.590736 -0.793996 -1.919592 -1.576911 -1.067186 0.645238 -1.887511 0.020795 0.024380 -2.219904 0.148172 0.133933 0.099208 -1.926992 0.729411 0.321823 1.243385 -0.466512 -0.040159 0.559594 0.986527 0.505186 1.139321 1.673335 -0.465841 0.855507 -0.095629 -0.878932 1.039334 -0.511623 1.524742 0.986756 -1.759098 0.126831 -3.105492 -0.479024 3.841270 0.468875 1.384158 1.915440 0.102497 1.037849 0.444239 -0.853976 -0.246608 0.808649 -1.467179 -0.130429 -1.479762 -1.856493 1.912800 -1.682585 1.716249 -0.391200 -1.023908 -0.227811 1.280062 1.296850 -0.222611 -0.632290 1.267353 -0.766936 1.766717 0.468651 1.651646 1.695123 0.234646 -0.839686 1.190280 -0.968068 -1.269402 0.769296 -1.062560 0.291478 -1.710758 -0.091551 0.127538 0.679216 2.492254 0.811856 -2.547178 -1.279454 1.177548 0.129087 3.147398 -0.930228 -0.874782 0.109101 -1.461948 -1.838478 1.524918 0.615644 -1.129362 0.052089 -1.044916 0.766188 0.303861 0.583872
足 -3.722332 -1.959094 -0.019368 1.042192 -0.175357 1.354530 2.409582 -2.119996 0.592730 -1.880703 0.443869 -0.239048 2.092658 0.488151 -0.446185 -1.689499 1.582353 -0.336046 -0.633215 -0.552193 1.070190 1.460691 1.816911 0.005335 -1.915048 -1.577019 0.059162 3.492839 -1.311124 -2.655457 -0.660980 -1.821349 1.007869 -1.974436 0.810477 -2.808010 -3.382611 -2.670467 1.393990 0.074131 0.663053 -0.423489 -1.045449 3.257356 -1.246008 -1.547549 -0.329353 3.587215 -0.830583 -2.024984 -1.706135 1.228617 1.869513 -0.476224 -0.236896 1.278056 -0.613640 -0.235840 -0.358579 1.471225 2.354224 1.515256 0.113985 -3.267796 0.767091 1.144138 -1.999272 0.147358 -0.869105 1.557050 -0.317595 -2.392187 0.861708 -1.430727 -0.649578 1.783982 0.024432 1.187744 1.373672 3.290652 1.406925 -1.601040 0.470783 0.693417 -0.233240 -1.610507 0.947882 -1.661765 -0.523798 2.920469 0.962561 -0.384445 0.141816 0.436920 1.878160 -1.044569 0.027037 -0.410633 1.494272 1.425654
功 -0.553094 0.505217 2.057692 0.383984 0.134413 -3.129130 1.891063 -0.219728 0.000647 -0.580300 0.243474 0.376468 -1.671753 0.561579 -1.672605 -1.185149 3.720047 0.922663 0.799586 1.401123 1.744589 2.119097 -1.161018 -0.505797 -1.549664 -0.318329 1.561208 0.657762 1.529989 1.388507 -0.887482 -1.300729 -0.744316 1.988193 -0.432164 0.753518 -0.707419 0.205108 -2.499051 -0.334179 0.913177 1.336440 1.465915 1.572602 -0.452221 -1.859791 0.532204 0.886567 0.241030 -0.912477 -3.153847 -1.309511 2.036649 -0.889192 0.132013 -0.555663 -1.796214 -2.533642 -0.185146 0.472927 -0.279219 0.712138 0.727988 0.708320 2.391789 -0.158455 -0.653870 0.891584 -1.412002 -1.644332 1.952047 -0.589618 0.913098 0.392487 -1.246790 0.945572 -2.466866 1.456912 1.329004 1.632356 -0.728019 -0.115219 -0.051712 -0.177750 0.628256 0.691237 1.380659 -0.373354 -0.142826 -1.832516 -0.209788 0.115967 2.401020 0.706959 -0.104127 -1.200310 -2.070643 -0.201632 0.528070 1.371548
绑 -3.484354 -1.233467 0.389843 -0.142727 1.457484 -0.516639 -1.497315 -0.822996 -0.215244 1.559018 0.164866 -1.531407 1.645624 -1.299426 -0.163784 -1.008110 -1.470616 1.382319 0.016770 2.855540 -2.602704 -0.158160 0.416916 0.675041 -1.539349 1.301343 1.542924 -1.066491 0.083470 -0.167791 -0.777302 -1.309720 0.512402 -0.657334 2.597879 1.092095 1.183621 -0.907193 2.461026 1.207937 1.528022 0.375295 0.708382 2.435081 0.694945 -0.563459 2.299255 1.577207 -1.327853 -1.359750 -1.802247 -1.322420 3.100200 0.041988 2.268646 -0.781983 2.158681 -0.844172 0.724659 1.371934 -1.072289 -1.582206 -1.625845 1.293169 2.233039 1.014403 1.756474 2.621181 0.771896 -1.227065 0.221780 -1.363695 -3.139488 -1.044789 -2.318873 2.397370 1.139279 -2.894387 -1.991226 -0.621121 0.792443 2.048881 -1.142795 2.095908 -1.903627 -1.250245 -1.598579 0.200162 0.446614 1.633737 -0.408353 0.004100 -1.550262 -1.053700 -1.350027 -1.551107 0.260625 2.455120 0.039901 3.121793
Q -0.220870 0.166292 2.969595 0.401885 0.598143 0.007478 0.818028 1.357148 1.285164 2.413743 -0.854249 0.171624 -2.035697 -0.347960 -0.598264 -1.416569 0.820727 -0.479409 2.040158 -0.072761 -1.141936 -0.158838 1.430089 -1.675873 -1.309991 2.700616 -1.200784 -0.825813 0.738440 -0.352586 -0.977202 -0.851350 1.444800 -1.326610 0.395578 1.282565 -2.363217 0.668340 0.302967 1.148263 -0.711683 -1.312541 -1.122527 -1.721360 -0.441716 1.829629 -1.510015 1.402871 -3.326220 -0.036017 0.989032 -0.356286 0.392449 0.467807 0.321604 -0.342713 -0.047696 -0.948019 2.058685 0.087758 1.375201 -2.023094 -0.421647 -0.690010 2.262905 0.893019 0.664335 -2.226851 1.970336 1.069327 0.884259 -1.412938 0.592336 -0.116392 -1.559973 -0.701088 -0.843225 -0.375478 -2.740992 -0.339397 0.398521 1.383348 1.731007 0.238867 1.718511 1.169483 2.321598 -1.763939 1.377129 1.942636 1.073331 -0.967015 2.459014 0.907770 -1.360024 1.668829 -2.225117 2.919415 -0.770414 0.610342
